digraph Tree {
node [shape=box, style="filled, rounded", color="black", fontname=helvetica] ;
edge [fontname=helvetica] ;
0 [label=<Hour_of_day &le; 6.75<br/>mse = 884460.87<br/>samples = 157294<br/>value = 5462.672>, fillcolor="#e5813953"] ;
1 [label=<Year &le; 2013.5<br/>mse = 312396.742<br/>samples = 45876<br/>value = 4663.03>, fillcolor="#e5813936"] ;
0 -> 1 [labeldistance=2.5, labelangle=45, headlabel="True"] ;
2 [label=<Hour_of_day &le; 2.25<br/>mse = 220983.838<br/>samples = 25478<br/>value = 4887.249>, fillcolor="#e581393e"] ;
1 -> 2 ;
3 [label=<MILDURA-AIRPORT_MaxT_76031 &le; 19.65<br/>mse = 147110.326<br/>samples = 9098<br/>value = 5098.439>, fillcolor="#e5813946"] ;
2 -> 3 ;
4 [label=<Hour_of_day &le; 0.25<br/>mse = 103255.911<br/>samples = 2880<br/>value = 5396.24>, fillcolor="#e5813951"] ;
3 -> 4 ;
5 [label=<winter &le; 0.5<br/>mse = 76700.498<br/>samples = 576<br/>value = 5638.724>, fillcolor="#e581395a"] ;
4 -> 5 ;
6 [label=<MORWELL_MinT_85280 &le; 10.65<br/>mse = 81915.071<br/>samples = 194<br/>value = 5459.923>, fillcolor="#e5813953"] ;
5 -> 6 ;
7 [label=<MORWELL_MinT_85280 &le; 1.75<br/>mse = 63608.553<br/>samples = 177<br/>value = 5493.785>, fillcolor="#e5813954"] ;
6 -> 7 ;
8 [label=<mse = 15424.38<br/>samples = 11<br/>value = 5742.727>, fillcolor="#e581395e"] ;
7 -> 8 ;
9 [label=<MELBOURNE-AIRPORT_MaxT_86282 &le; 16.95<br/>mse = 62422.772<br/>samples = 166<br/>value = 5477.289>, fillcolor="#e5813954"] ;
7 -> 9 ;
10 [label=<CAPE-NELSON_MaxT_90184 &le; 15.05<br/>mse = 53446.211<br/>samples = 148<br/>value = 5495.27>, fillcolor="#e5813955"] ;
9 -> 10 ;
11 [label=<MILDURA-AIRPORT_MaxT_76031 &le; 18.65<br/>mse = 52480.181<br/>samples = 105<br/>value = 5456.905>, fillcolor="#e5813953"] ;
10 -> 11 ;
12 [label=<CAPE-NELSON_MaxT_90184 &le; 13.35<br/>mse = 44174.662<br/>samples = 86<br/>value = 5485.581>, fillcolor="#e5813954"] ;
11 -> 12 ;
13 [label=<MORWELL_MinT_85280 &le; 4.8<br/>mse = 52230.556<br/>samples = 36<br/>value = 5423.333>, fillcolor="#e5813952"] ;
12 -> 13 ;
14 [label=<mse = 71489.0<br/>samples = 10<br/>value = 5564.0>, fillcolor="#e5813957"] ;
13 -> 14 ;
15 [label=<CAPE-NELSON_MinT_90184 &le; 9.25<br/>mse = 34285.947<br/>samples = 26<br/>value = 5369.231>, fillcolor="#e5813950"] ;
13 -> 15 ;
16 [label=<mse = 22834.311<br/>samples = 14<br/>value = 5273.214>, fillcolor="#e581394c"] ;
15 -> 16 ;
17 [label=<mse = 24342.188<br/>samples = 12<br/>value = 5481.25>, fillcolor="#e5813954"] ;
15 -> 17 ;
18 [label=<CAPE-NELSON_MinT_90184 &le; 9.3<br/>mse = 33575.84<br/>samples = 50<br/>value = 5530.4>, fillcolor="#e5813956"] ;
12 -> 18 ;
19 [label=<mse = 7446.694<br/>samples = 11<br/>value = 5636.818>, fillcolor="#e581395a"] ;
18 -> 19 ;
20 [label=<MELBOURNE-AIRPORT_MinT_86282 &le; 6.55<br/>mse = 36850.493<br/>samples = 39<br/>value = 5500.385>, fillcolor="#e5813955"] ;
18 -> 20 ;
21 [label=<mse = 32165.702<br/>samples = 11<br/>value = 5370.455>, fillcolor="#e5813950"] ;
20 -> 21 ;
22 [label=<MELBOURNE-AIRPORT_MinT_86282 &le; 8.6<br/>mse = 29453.316<br/>samples = 28<br/>value = 5551.429>, fillcolor="#e5813957"] ;
20 -> 22 ;
23 [label=<mse = 23253.633<br/>samples = 17<br/>value = 5614.118>, fillcolor="#e5813959"] ;
22 -> 23 ;
24 [label=<mse = 23574.793<br/>samples = 11<br/>value = 5454.545>, fillcolor="#e5813953"] ;
22 -> 24 ;
25 [label=<mse = 69503.463<br/>samples = 19<br/>value = 5327.105>, fillcolor="#e581394e"] ;
11 -> 25 ;
26 [label=<MORWELL_MaxT_85280 &le; 15.65<br/>mse = 43434.37<br/>samples = 43<br/>value = 5588.953>, fillcolor="#e5813958"] ;
10 -> 26 ;
27 [label=<mse = 29060.537<br/>samples = 22<br/>value = 5669.091>, fillcolor="#e581395b"] ;
26 -> 27 ;
28 [label=<mse = 44716.667<br/>samples = 21<br/>value = 5505.0>, fillcolor="#e5813955"] ;
26 -> 28 ;
29 [label=<mse = 111713.58<br/>samples = 18<br/>value = 5329.444>, fillcolor="#e581394f"] ;
9 -> 29 ;
30 [label=<mse = 136273.875<br/>samples = 17<br/>value = 5107.353>, fillcolor="#e5813946"] ;
6 -> 30 ;
31 [label=<MELBOURNE-AIRPORT_MinT_86282 &le; 4.45<br/>mse = 49570.72<br/>samples = 382<br/>value = 5729.529>, fillcolor="#e581395d"] ;
5 -> 31 ;
32 [label=<CAPE-NELSON_MinT_90184 &le; 5.85<br/>mse = 42206.23<br/>samples = 113<br/>value = 5873.451>, fillcolor="#e5813962"] ;
31 -> 32 ;
33 [label=<MELBOURNE-AIRPORT_MinT_86282 &le; 2.5<br/>mse = 32367.764<br/>samples = 27<br/>value = 5991.296>, fillcolor="#e5813967"] ;
32 -> 33 ;
34 [label=<mse = 6558.889<br/>samples = 15<br/>value = 6088.333>, fillcolor="#e581396a"] ;
33 -> 34 ;
35 [label=<mse = 38145.833<br/>samples = 12<br/>value = 5870.0>, fillcolor="#e5813962"] ;
33 -> 35 ;
36 [label=<Year &le; 2010.5<br/>mse = 39566.201<br/>samples = 86<br/>value = 5836.453>, fillcolor="#e5813961"] ;
32 -> 36 ;
37 [label=<MORWELL_MaxT_85280 &le; 13.75<br/>mse = 29067.056<br/>samples = 37<br/>value = 5907.568>, fillcolor="#e5813964"] ;
36 -> 37 ;
38 [label=<MELBOURNE-AIRPORT_MaxT_86282 &le; 12.1<br/>mse = 14069.12<br/>samples = 26<br/>value = 5951.731>, fillcolor="#e5813965"] ;
37 -> 38 ;
39 [label=<mse = 12785.25<br/>samples = 10<br/>value = 5893.5>, fillcolor="#e5813963"] ;
38 -> 39 ;
40 [label=<mse = 11427.734<br/>samples = 16<br/>value = 5988.125>, fillcolor="#e5813967"] ;
38 -> 40 ;
41 [label=<mse = 49010.331<br/>samples = 11<br/>value = 5803.182>, fillcolor="#e5813960"] ;
37 -> 41 ;
42 [label=<Year &le; 2012.5<br/>mse = 40791.899<br/>samples = 49<br/>value = 5782.755>, fillcolor="#e581395f"] ;
36 -> 42 ;
43 [label=<MORWELL_MinT_85280 &le; 2.85<br/>mse = 39883.959<br/>samples = 35<br/>value = 5728.429>, fillcolor="#e581395d"] ;
42 -> 43 ;
44 [label=<mse = 28586.222<br/>samples = 15<br/>value = 5800.667>, fillcolor="#e5813960"] ;
43 -> 44 ;
45 [label=<mse = 41508.188<br/>samples = 20<br/>value = 5674.25>, fillcolor="#e581395b"] ;
43 -> 45 ;
46 [label=<mse = 17237.245<br/>samples = 14<br/>value = 5918.571>, fillcolor="#e5813964"] ;
42 -> 46 ;
47 [label=<MELBOURNE-AIRPORT_MinT_86282 &le; 8.35<br/>mse = 40307.872<br/>samples = 269<br/>value = 5669.071>, fillcolor="#e581395b"] ;
31 -> 47 ;
48 [label=<Year &le; 2012.5<br/>mse = 39089.4<br/>samples = 210<br/>value = 5690.071>, fillcolor="#e581395c"] ;
47 -> 48 ;
49 [label=<Year &le; 2010.5<br/>mse = 39807.914<br/>samples = 180<br/>value = 5671.444>, fillcolor="#e581395b"] ;
48 -> 49 ;
50 [label=<MELBOURNE-AIRPORT_MaxT_86282 &le; 13.05<br/>mse = 49646.937<br/>samples = 92<br/>value = 5717.772>, fillcolor="#e581395d"] ;
49 -> 50 ;
51 [label=<MORWELL_MaxT_85280 &le; 12.65<br/>mse = 41941.821<br/>samples = 36<br/>value = 5801.111>, fillcolor="#e5813960"] ;
50 -> 51 ;
52 [label=<mse = 50039.053<br/>samples = 13<br/>value = 5711.154>, fillcolor="#e581395c"] ;
51 -> 52 ;
53 [label=<mse = 30205.955<br/>samples = 23<br/>value = 5851.957>, fillcolor="#e5813962"] ;
51 -> 53 ;
54 [label=<Year &le; 2009.5<br/>mse = 47264.979<br/>samples = 56<br/>value = 5664.196>, fillcolor="#e581395b"] ;
50 -> 54 ;
55 [label=<MORWELL_MinT_85280 &le; 5.1<br/>mse = 58180.0<br/>samples = 25<br/>value = 5591.0>, fillcolor="#e5813958"] ;
54 -> 55 ;
56 [label=<mse = 24040.25<br/>samples = 10<br/>value = 5726.5>, fillcolor="#e581395d"] ;
55 -> 56 ;
57 [label=<mse = 60539.556<br/>samples = 15<br/>value = 5500.667>, fillcolor="#e5813955"] ;
55 -> 57 ;
58 [label=<MORWELL_MinT_85280 &le; 6.3<br/>mse = 30657.336<br/>samples = 31<br/>value = 5723.226>, fillcolor="#e581395d"] ;
54 -> 58 ;
59 [label=<mse = 24363.379<br/>samples = 21<br/>value = 5674.048>, fillcolor="#e581395b"] ;
58 -> 59 ;
60 [label=<mse = 28130.25<br/>samples = 10<br/>value = 5826.5>, fillcolor="#e5813961"] ;
58 -> 60 ;
61 [label=<MORWELL_MinT_85280 &le; 1.4<br/>mse = 24932.125<br/>samples = 88<br/>value = 5623.011>, fillcolor="#e5813959"] ;
49 -> 61 ;
62 [label=<mse = 8600.25<br/>samples = 10<br/>value = 5718.5>, fillcolor="#e581395d"] ;
61 -> 62 ;
63 [label=<MORWELL_MinT_85280 &le; 6.75<br/>mse = 25707.101<br/>samples = 78<br/>value = 5610.769>, fillcolor="#e5813959"] ;
61 -> 63 ;
64 [label=<MORWELL_MaxT_85280 &le; 12.65<br/>mse = 23245.02<br/>samples = 47<br/>value = 5574.149>, fillcolor="#e5813957"] ;
63 -> 64 ;
65 [label=<mse = 24251.556<br/>samples = 15<br/>value = 5509.667>, fillcolor="#e5813955"] ;
64 -> 65 ;
66 [label=<MORWELL_MinT_85280 &le; 3.75<br/>mse = 19910.547<br/>samples = 32<br/>value = 5604.375>, fillcolor="#e5813959"] ;
64 -> 66 ;
67 [label=<mse = 21796.367<br/>samples = 17<br/>value = 5561.471>, fillcolor="#e5813957"] ;
66 -> 67 ;
68 [label=<mse = 13322.667<br/>samples = 15<br/>value = 5653.0>, fillcolor="#e581395a"] ;
66 -> 68 ;
69 [label=<MORWELL_MinT_85280 &le; 8.25<br/>mse = 24324.142<br/>samples = 31<br/>value = 5666.29>, fillcolor="#e581395b"] ;
63 -> 69 ;
70 [label=<mse = 8618.688<br/>samples = 20<br/>value = 5737.25>, fillcolor="#e581395d"] ;
69 -> 70 ;
71 [label=<mse = 27078.926<br/>samples = 11<br/>value = 5537.273>, fillcolor="#e5813956"] ;
69 -> 71 ;
72 [label=<MORWELL_MaxT_85280 &le; 13.95<br/>mse = 20205.806<br/>samples = 30<br/>value = 5801.833>, fillcolor="#e5813960"] ;
48 -> 72 ;
73 [label=<mse = 18266.864<br/>samples = 13<br/>value = 5738.462>, fillcolor="#e581395d"] ;
72 -> 73 ;
74 [label=<mse = 16269.031<br/>samples = 17<br/>value = 5850.294>, fillcolor="#e5813961"] ;
72 -> 74 ;
75 [label=<MILDURA-AIRPORT_MaxT_76031 &le; 16.3<br/>mse = 37487.676<br/>samples = 59<br/>value = 5594.322>, fillcolor="#e5813958"] ;
47 -> 75 ;
76 [label=<mse = 25745.215<br/>samples = 16<br/>value = 5720.312>, fillcolor="#e581395d"] ;
75 -> 76 ;
77 [label=<CAPE-NELSON_MaxT_90184 &le; 13.4<br/>mse = 33752.758<br/>samples = 43<br/>value = 5547.442>, fillcolor="#e5813956"] ;
75 -> 77 ;
78 [label=<mse = 49680.25<br/>samples = 10<br/>value = 5398.5>, fillcolor="#e5813951"] ;
77 -> 78 ;
79 [label=<CAPE-NELSON_MaxT_90184 &le; 14.45<br/>mse = 20166.85<br/>samples = 33<br/>value = 5592.576>, fillcolor="#e5813958"] ;
77 -> 79 ;
80 [label=<mse = 18856.0<br/>samples = 10<br/>value = 5672.0>, fillcolor="#e581395b"] ;
79 -> 80 ;
81 [label=<mse = 16801.607<br/>samples = 23<br/>value = 5558.043>, fillcolor="#e5813957"] ;
79 -> 81 ;
82 [label=<winter &le; 0.5<br/>mse = 91520.18<br/>samples = 2304<br/>value = 5335.618>, fillcolor="#e581394f"] ;
4 -> 82 ;
83 [label=<MELBOURNE-AIRPORT_MinT_86282 &le; 11.7<br/>mse = 85606.207<br/>samples = 776<br/>value = 5183.247>, fillcolor="#e5813949"] ;
82 -> 83 ;
84 [label=<Year &le; 2011.5<br/>mse = 76638.342<br/>samples = 740<br/>value = 5205.554>, fillcolor="#e581394a"] ;
83 -> 84 ;
85 [label=<MORWELL_MinT_85280 &le; 1.75<br/>mse = 71402.739<br/>samples = 532<br/>value = 5258.487>, fillcolor="#e581394c"] ;
84 -> 85 ;
86 [label=<Hour_of_day &le; 1.25<br/>mse = 19381.694<br/>samples = 36<br/>value = 5559.028>, fillcolor="#e5813957"] ;
85 -> 86 ;
87 [label=<mse = 15677.778<br/>samples = 18<br/>value = 5496.667>, fillcolor="#e5813955"] ;
86 -> 87 ;
88 [label=<mse = 15307.793<br/>samples = 18<br/>value = 5621.389>, fillcolor="#e5813959"] ;
86 -> 88 ;
89 [label=<MORWELL_MinT_85280 &le; 10.65<br/>mse = 68146.797<br/>samples = 496<br/>value = 5236.673>, fillcolor="#e581394b"] ;
85 -> 89 ;
90 [label=<Hour_of_day &le; 1.25<br/>mse = 56867.986<br/>samples = 464<br/>value = 5254.526>, fillcolor="#e581394c"] ;
89 -> 90 ;
91 [label=<Hour_of_day &le; 0.75<br/>mse = 55397.592<br/>samples = 232<br/>value = 5186.552>, fillcolor="#e5813949"] ;
90 -> 91 ;
92 [label=<MILDURA-AIRPORT_MaxT_76031 &le; 15.45<br/>mse = 52147.659<br/>samples = 116<br/>value = 5269.569>, fillcolor="#e581394c"] ;
91 -> 92 ;
93 [label=<mse = 13975.638<br/>samples = 14<br/>value = 5418.929>, fillcolor="#e5813952"] ;
92 -> 93 ;
94 [label=<MELBOURNE-AIRPORT_MaxT_86282 &le; 14.95<br/>mse = 53904.77<br/>samples = 102<br/>value = 5249.069>, fillcolor="#e581394c"] ;
92 -> 94 ;
95 [label=<MILDURA-AIRPORT_MaxT_76031 &le; 16.25<br/>mse = 34355.161<br/>samples = 47<br/>value = 5302.66>, fillcolor="#e581394e"] ;
94 -> 95 ;
96 [label=<mse = 18486.0<br/>samples = 10<br/>value = 5207.0>, fillcolor="#e581394a"] ;
95 -> 96 ;
97 [label=<mse = 35502.52<br/>samples = 37<br/>value = 5328.514>, fillcolor="#e581394e"] ;
95 -> 97 ;
98 [label=<Year &le; 2009.5<br/>mse = 66059.289<br/>samples = 55<br/>value = 5203.273>, fillcolor="#e581394a"] ;
94 -> 98 ;
99 [label=<mse = 34862.476<br/>samples = 23<br/>value = 5296.957>, fillcolor="#e581394d"] ;
98 -> 99 ;
100 [label=<mse = 77639.746<br/>samples = 32<br/>value = 5135.938>, fillcolor="#e5813947"] ;
98 -> 100 ;
101 [label=<MILDURA-AIRPORT_MaxT_76031 &le; 15.45<br/>mse = 44863.801<br/>samples = 116<br/>value = 5103.534>, fillcolor="#e5813946"] ;
91 -> 101 ;
102 [label=<mse = 12315.816<br/>samples = 14<br/>value = 5243.571>, fillcolor="#e581394b"] ;
101 -> 102 ;
103 [label=<MELBOURNE-AIRPORT_MaxT_86282 &le; 15.55<br/>mse = 46270.117<br/>samples = 102<br/>value = 5084.314>, fillcolor="#e5813946"] ;
101 -> 103 ;
104 [label=<MELBOURNE-AIRPORT_MinT_86282 &le; 4.65<br/>mse = 39951.868<br/>samples = 61<br/>value = 5123.033>, fillcolor="#e5813947"] ;
103 -> 104 ;
105 [label=<mse = 63346.25<br/>samples = 10<br/>value = 5262.5>, fillcolor="#e581394c"] ;
104 -> 105 ;
106 [label=<mse = 30802.96<br/>samples = 51<br/>value = 5095.686>, fillcolor="#e5813946"] ;
104 -> 106 ;
107 [label=<MILDURA-AIRPORT_MaxT_76031 &le; 17.65<br/>mse = 50121.475<br/>samples = 41<br/>value = 5026.707>, fillcolor="#e5813943"] ;
103 -> 107 ;
108 [label=<mse = 41643.75<br/>samples = 12<br/>value = 4867.5>, fillcolor="#e581393e"] ;
107 -> 108 ;
109 [label=<mse = 38801.07<br/>samples = 29<br/>value = 5092.586>, fillcolor="#e5813946"] ;
107 -> 109 ;
110 [label=<Hour_of_day &le; 1.75<br/>mse = 49097.414<br/>samples = 232<br/>value = 5322.5>, fillcolor="#e581394e"] ;
90 -> 110 ;
111 [label=<MILDURA-AIRPORT_MaxT_76031 &le; 15.45<br/>mse = 45032.006<br/>samples = 116<br/>value = 5398.233>, fillcolor="#e5813951"] ;
110 -> 111 ;
112 [label=<mse = 12073.087<br/>samples = 14<br/>value = 5525.357>, fillcolor="#e5813956"] ;
111 -> 112 ;
113 [label=<Year &le; 2010.5<br/>mse = 47033.208<br/>samples = 102<br/>value = 5380.784>, fillcolor="#e5813950"] ;
111 -> 113 ;
114 [label=<CAPE-NELSON_MinT_90184 &le; 9.75<br/>mse = 41698.096<br/>samples = 71<br/>value = 5414.296>, fillcolor="#e5813952"] ;
113 -> 114 ;
115 [label=<mse = 45654.931<br/>samples = 37<br/>value = 5366.351>, fillcolor="#e5813950"] ;
114 -> 115 ;
116 [label=<mse = 32168.426<br/>samples = 34<br/>value = 5466.471>, fillcolor="#e5813953"] ;
114 -> 116 ;
117 [label=<CAPE-NELSON_MinT_90184 &le; 10.5<br/>mse = 50789.386<br/>samples = 31<br/>value = 5304.032>, fillcolor="#e581394e"] ;
113 -> 117 ;
118 [label=<mse = 43535.714<br/>samples = 21<br/>value = 5365.0>, fillcolor="#e5813950"] ;
117 -> 118 ;
119 [label=<mse = 41824.0<br/>samples = 10<br/>value = 5176.0>, fillcolor="#e5813949"] ;
117 -> 119 ;
120 [label=<Year &le; 2009.5<br/>mse = 41691.92<br/>samples = 116<br/>value = 5246.767>, fillcolor="#e581394b"] ;
110 -> 120 ;
121 [label=<CAPE-NELSON_MaxT_90184 &le; 13.9<br/>mse = 28735.457<br/>samples = 38<br/>value = 5315.263>, fillcolor="#e581394e"] ;
120 -> 121 ;
122 [label=<mse = 14259.172<br/>samples = 13<br/>value = 5193.462>, fillcolor="#e581394a"] ;
121 -> 122 ;
123 [label=<MELBOURNE-AIRPORT_MaxT_86282 &le; 15.6<br/>mse = 24537.04<br/>samples = 25<br/>value = 5378.6>, fillcolor="#e5813950"] ;
121 -> 123 ;
124 [label=<mse = 22521.901<br/>samples = 11<br/>value = 5439.091>, fillcolor="#e5813952"] ;
123 -> 124 ;
125 [label=<mse = 20986.352<br/>samples = 14<br/>value = 5331.071>, fillcolor="#e581394f"] ;
123 -> 125 ;
126 [label=<MELBOURNE-AIRPORT_MaxT_86282 &le; 14.95<br/>mse = 44604.804<br/>samples = 78<br/>value = 5213.397>, fillcolor="#e581394a"] ;
120 -> 126 ;
127 [label=<Year &le; 2010.5<br/>mse = 26152.944<br/>samples = 44<br/>value = 5280.682>, fillcolor="#e581394d"] ;
126 -> 127 ;
128 [label=<mse = 34171.361<br/>samples = 23<br/>value = 5327.174>, fillcolor="#e581394e"] ;
127 -> 128 ;
129 [label=<mse = 12410.658<br/>samples = 21<br/>value = 5229.762>, fillcolor="#e581394b"] ;
127 -> 129 ;
130 [label=<CAPE-NELSON_MaxT_90184 &le; 15.25<br/>mse = 55043.101<br/>samples = 34<br/>value = 5126.324>, fillcolor="#e5813947"] ;
126 -> 130 ;
131 [label=<mse = 55017.407<br/>samples = 22<br/>value = 5077.955>, fillcolor="#e5813945"] ;
130 -> 131 ;
132 [label=<mse = 42937.5<br/>samples = 12<br/>value = 5215.0>, fillcolor="#e581394a"] ;
130 -> 132 ;
133 [label=<CAPE-NELSON_MinT_90184 &le; 11.5<br/>mse = 160059.277<br/>samples = 32<br/>value = 4977.812>, fillcolor="#e5813942"] ;
89 -> 133 ;
134 [label=<mse = 58944.0<br/>samples = 20<br/>value = 4711.0>, fillcolor="#e5813938"] ;
133 -> 134 ;
135 [label=<mse = 12189.583<br/>samples = 12<br/>value = 5422.5>, fillcolor="#e5813952"] ;
133 -> 135 ;
136 [label=<Hour_of_day &le; 0.75<br/>mse = 64533.746<br/>samples = 208<br/>value = 5070.168>, fillcolor="#e5813945"] ;
84 -> 136 ;
137 [label=<MORWELL_MaxT_85280 &le; 13.45<br/>mse = 51306.361<br/>samples = 52<br/>value = 5233.846>, fillcolor="#e581394b"] ;
136 -> 137 ;
138 [label=<mse = 17226.446<br/>samples = 11<br/>value = 5080.909>, fillcolor="#e5813945"] ;
137 -> 138 ;
139 [label=<MILDURA-AIRPORT_MaxT_76031 &le; 18.65<br/>mse = 52490.839<br/>samples = 41<br/>value = 5274.878>, fillcolor="#e581394d"] ;
137 -> 139 ;
140 [label=<MILDURA-AIRPORT_MaxT_76031 &le; 17.45<br/>mse = 42120.571<br/>samples = 29<br/>value = 5329.655>, fillcolor="#e581394f"] ;
139 -> 140 ;
141 [label=<mse = 37580.667<br/>samples = 15<br/>value = 5234.0>, fillcolor="#e581394b"] ;
140 -> 141 ;
142 [label=<mse = 26677.551<br/>samples = 14<br/>value = 5432.143>, fillcolor="#e5813952"] ;
140 -> 142 ;
143 [label=<mse = 52777.083<br/>samples = 12<br/>value = 5142.5>, fillcolor="#e5813948"] ;
139 -> 143 ;
144 [label=<Year &le; 2012.5<br/>mse = 57036.007<br/>samples = 156<br/>value = 5015.609>, fillcolor="#e5813943"] ;
136 -> 144 ;
145 [label=<CAPE-NELSON_MaxT_90184 &le; 13.15<br/>mse = 53597.136<br/>samples = 102<br/>value = 5071.961>, fillcolor="#e5813945"] ;
144 -> 145 ;
146 [label=<mse = 14031.556<br/>samples = 15<br/>value = 4830.333>, fillcolor="#e581393c"] ;
145 -> 146 ;
147 [label=<MILDURA-AIRPORT_MaxT_76031 &le; 18.6<br/>mse = 48617.063<br/>samples = 87<br/>value = 5113.621>, fillcolor="#e5813947"] ;
145 -> 147 ;
148 [label=<MELBOURNE-AIRPORT_MaxT_86282 &le; 12.95<br/>mse = 41946.737<br/>samples = 57<br/>value = 5166.228>, fillcolor="#e5813949"] ;
147 -> 148 ;
149 [label=<mse = 31792.361<br/>samples = 18<br/>value = 4997.5>, fillcolor="#e5813942"] ;
148 -> 149 ;
150 [label=<MELBOURNE-AIRPORT_MaxT_86282 &le; 14.05<br/>mse = 27429.323<br/>samples = 39<br/>value = 5244.103>, fillcolor="#e581394b"] ;
148 -> 150 ;
151 [label=<mse = 25046.914<br/>samples = 18<br/>value = 5320.556>, fillcolor="#e581394e"] ;
150 -> 151 ;
152 [label=<mse = 20167.007<br/>samples = 21<br/>value = 5178.571>, fillcolor="#e5813949"] ;
150 -> 152 ;
153 [label=<MILDURA-AIRPORT_MaxT_76031 &le; 18.85<br/>mse = 46041.556<br/>samples = 30<br/>value = 5013.667>, fillcolor="#e5813943"] ;
147 -> 153 ;
154 [label=<mse = 26772.889<br/>samples = 15<br/>value = 4889.333>, fillcolor="#e581393e"] ;
153 -> 154 ;
155 [label=<mse = 34392.667<br/>samples = 15<br/>value = 5138.0>, fillcolor="#e5813948"] ;
153 -> 155 ;
156 [label=<MELBOURNE-AIRPORT_MinT_86282 &le; 4.95<br/>mse = 46203.472<br/>samples = 54<br/>value = 4909.167>, fillcolor="#e581393f"] ;
144 -> 156 ;
157 [label=<mse = 20551.556<br/>samples = 15<br/>value = 5100.333>, fillcolor="#e5813946"] ;
156 -> 157 ;
158 [label=<Hour_of_day &le; 1.75<br/>mse = 36607.922<br/>samples = 39<br/>value = 4835.641>, fillcolor="#e581393c"] ;
156 -> 158 ;
159 [label=<workdayTAS &le; 0.5<br/>mse = 30893.639<br/>samples = 26<br/>value = 4885.769>, fillcolor="#e581393e"] ;
158 -> 159 ;
160 [label=<mse = 24545.25<br/>samples = 10<br/>value = 4976.5>, fillcolor="#e5813942"] ;
159 -> 160 ;
161 [label=<mse = 26500.684<br/>samples = 16<br/>value = 4829.062>, fillcolor="#e581393c"] ;
159 -> 161 ;
162 [label=<mse = 32959.467<br/>samples = 13<br/>value = 4735.385>, fillcolor="#e5813939"] ;
158 -> 162 ;
163 [label=<MELBOURNE-AIRPORT_MinT_86282 &le; 12.15<br/>mse = 49472.145<br/>samples = 36<br/>value = 4724.722>, fillcolor="#e5813938"] ;
83 -> 163 ;
164 [label=<mse = 19434.722<br/>samples = 12<br/>value = 4483.333>, fillcolor="#e5813930"] ;
163 -> 164 ;
165 [label=<MORWELL_MaxT_85280 &le; 18.45<br/>mse = 20789.41<br/>samples = 24<br/>value = 4845.417>, fillcolor="#e581393d"] ;
163 -> 165 ;
166 [label=<mse = 17476.389<br/>samples = 12<br/>value = 4926.667>, fillcolor="#e5813940"] ;
165 -> 166 ;
167 [label=<mse = 10899.306<br/>samples = 12<br/>value = 4764.167>, fillcolor="#e581393a"] ;
165 -> 167 ;
168 [label=<Year &le; 2010.5<br/>mse = 76744.808<br/>samples = 1528<br/>value = 5413.001>, fillcolor="#e5813952"] ;
82 -> 168 ;
169 [label=<MELBOURNE-AIRPORT_MinT_86282 &le; 4.45<br/>mse = 55022.829<br/>samples = 632<br/>value = 5576.733>, fillcolor="#e5813958"] ;
168 -> 169 ;
170 [label=<Hour_of_day &le; 1.25<br/>mse = 32576.423<br/>samples = 196<br/>value = 5737.985>, fillcolor="#e581395d"] ;
169 -> 170 ;
171 [label=<Hour_of_day &le; 0.75<br/>mse = 29301.762<br/>samples = 98<br/>value = 5665.153>, fillcolor="#e581395b"] ;
170 -> 171 ;
172 [label=<MELBOURNE-AIRPORT_MinT_86282 &le; 2.35<br/>mse = 24561.058<br/>samples = 49<br/>value = 5745.408>, fillcolor="#e581395e"] ;
171 -> 172 ;
173 [label=<mse = 8843.787<br/>samples = 13<br/>value = 5831.538>, fillcolor="#e5813961"] ;
172 -> 173 ;
174 [label=<MELBOURNE-AIRPORT_MaxT_86282 &le; 13.95<br/>mse = 26590.49<br/>samples = 36<br/>value = 5714.306>, fillcolor="#e581395d"] ;
172 -> 174 ;
175 [label=<MELBOURNE-AIRPORT_MinT_86282 &le; 3.45<br/>mse = 18950.651<br/>samples = 24<br/>value = 5754.375>, fillcolor="#e581395e"] ;
174 -> 175 ;
176 [label=<mse = 22916.0<br/>samples = 10<br/>value = 5692.0>, fillcolor="#e581395c"] ;
175 -> 176 ;
177 [label=<mse = 11354.209<br/>samples = 14<br/>value = 5798.929>, fillcolor="#e5813960"] ;
175 -> 177 ;
178 [label=<mse = 32236.806<br/>samples = 12<br/>value = 5634.167>, fillcolor="#e581395a"] ;
174 -> 178 ;
179 [label=<MELBOURNE-AIRPORT_MinT_86282 &le; 2.35<br/>mse = 21160.704<br/>samples = 49<br/>value = 5584.898>, fillcolor="#e5813958"] ;
171 -> 179 ;
180 [label=<mse = 8757.101<br/>samples = 13<br/>value = 5674.231>, fillcolor="#e581395b"] ;
179 -> 180 ;
181 [label=<MORWELL_MinT_85280 &le; 3.2<br/>mse = 21717.342<br/>samples = 36<br/>value = 5552.639>, fillcolor="#e5813957"] ;
179 -> 181 ;
182 [label=<mse = 25407.183<br/>samples = 23<br/>value = 5510.652>, fillcolor="#e5813955"] ;
181 -> 182 ;
183 [label=<mse = 6552.071<br/>samples = 13<br/>value = 5626.923>, fillcolor="#e5813959"] ;
181 -> 183 ;
184 [label=<Hour_of_day &le; 1.75<br/>mse = 25242.191<br/>samples = 98<br/>value = 5810.816>, fillcolor="#e5813960"] ;
170 -> 184 ;
185 [label=<MELBOURNE-AIRPORT_MinT_86282 &le; 2.2<br/>mse = 19021.116<br/>samples = 49<br/>value = 5886.837>, fillcolor="#e5813963"] ;
184 -> 185 ;
186 [label=<mse = 7101.91<br/>samples = 12<br/>value = 5979.583>, fillcolor="#e5813966"] ;
185 -> 186 ;
187 [label=<MORWELL_MinT_85280 &le; 3.4<br/>mse = 19192.184<br/>samples = 37<br/>value = 5856.757>, fillcolor="#e5813962"] ;
185 -> 187 ;
188 [label=<MORWELL_MaxT_85280 &le; 13.75<br/>mse = 20553.84<br/>samples = 25<br/>value = 5819.6>, fillcolor="#e5813960"] ;
187 -> 188 ;
189 [label=<mse = 14251.556<br/>samples = 15<br/>value = 5865.333>, fillcolor="#e5813962"] ;
188 -> 189 ;
190 [label=<mse = 22164.0<br/>samples = 10<br/>value = 5751.0>, fillcolor="#e581395e"] ;
188 -> 190 ;
191 [label=<mse = 7486.806<br/>samples = 12<br/>value = 5934.167>, fillcolor="#e5813965"] ;
187 -> 191 ;
192 [label=<MELBOURNE-AIRPORT_MinT_86282 &le; 2.2<br/>mse = 19905.06<br/>samples = 49<br/>value = 5734.796>, fillcolor="#e581395d"] ;
184 -> 192 ;
193 [label=<mse = 7899.306<br/>samples = 12<br/>value = 5835.833>, fillcolor="#e5813961"] ;
192 -> 193 ;
194 [label=<MORWELL_MinT_85280 &le; 3.4<br/>mse = 19414.134<br/>samples = 37<br/>value = 5702.027>, fillcolor="#e581395c"] ;
192 -> 194 ;
195 [label=<MORWELL_MinT_85280 &le; 0.45<br/>mse = 19883.04<br/>samples = 25<br/>value = 5661.4>, fillcolor="#e581395b"] ;
194 -> 195 ;
196 [label=<mse = 19324.0<br/>samples = 10<br/>value = 5726.0>, fillcolor="#e581395d"] ;
195 -> 196 ;
197 [label=<mse = 15618.889<br/>samples = 15<br/>value = 5618.333>, fillcolor="#e5813959"] ;
195 -> 197 ;
198 [label=<mse = 7834.722<br/>samples = 12<br/>value = 5786.667>, fillcolor="#e581395f"] ;
194 -> 198 ;
199 [label=<Hour_of_day &le; 1.25<br/>mse = 48169.611<br/>samples = 436<br/>value = 5504.243>, fillcolor="#e5813955"] ;
169 -> 199 ;
200 [label=<Hour_of_day &le; 0.75<br/>mse = 46182.102<br/>samples = 218<br/>value = 5436.399>, fillcolor="#e5813952"] ;
199 -> 200 ;
201 [label=<MELBOURNE-AIRPORT_MaxT_86282 &le; 13.05<br/>mse = 40615.386<br/>samples = 109<br/>value = 5520.459>, fillcolor="#e5813955"] ;
200 -> 201 ;
202 [label=<MORWELL_MaxT_85280 &le; 12.65<br/>mse = 40213.511<br/>samples = 39<br/>value = 5610.769>, fillcolor="#e5813959"] ;
201 -> 202 ;
203 [label=<mse = 50990.625<br/>samples = 16<br/>value = 5527.5>, fillcolor="#e5813956"] ;
202 -> 203 ;
204 [label=<mse = 24537.429<br/>samples = 23<br/>value = 5668.696>, fillcolor="#e581395b"] ;
202 -> 204 ;
205 [label=<MILDURA-AIRPORT_MaxT_76031 &le; 18.15<br/>mse = 33763.551<br/>samples = 70<br/>value = 5470.143>, fillcolor="#e5813954"] ;
201 -> 205 ;
206 [label=<MELBOURNE-AIRPORT_MinT_86282 &le; 8.4<br/>mse = 31495.835<br/>samples = 59<br/>value = 5494.407>, fillcolor="#e5813955"] ;
205 -> 206 ;
207 [label=<CAPE-NELSON_MaxT_90184 &le; 14.25<br/>mse = 33436.068<br/>samples = 49<br/>value = 5515.816>, fillcolor="#e5813955"] ;
206 -> 207 ;
208 [label=<Year &le; 2009.5<br/>mse = 39674.732<br/>samples = 29<br/>value = 5475.517>, fillcolor="#e5813954"] ;
207 -> 208 ;
209 [label=<mse = 40649.333<br/>samples = 15<br/>value = 5397.0>, fillcolor="#e5813951"] ;
208 -> 209 ;
210 [label=<mse = 24948.087<br/>samples = 14<br/>value = 5559.643>, fillcolor="#e5813957"] ;
208 -> 210 ;
211 [label=<mse = 18620.688<br/>samples = 20<br/>value = 5574.25>, fillcolor="#e5813957"] ;
207 -> 211 ;
212 [label=<mse = 8737.25<br/>samples = 10<br/>value = 5389.5>, fillcolor="#e5813951"] ;
206 -> 212 ;
213 [label=<mse = 25831.818<br/>samples = 11<br/>value = 5340.0>, fillcolor="#e581394f"] ;
205 -> 213 ;
214 [label=<MELBOURNE-AIRPORT_MinT_86282 &le; 6.95<br/>mse = 37616.775<br/>samples = 109<br/>value = 5352.339>, fillcolor="#e581394f"] ;
200 -> 214 ;
215 [label=<MELBOURNE-AIRPORT_MaxT_86282 &le; 14.65<br/>mse = 32535.571<br/>samples = 54<br/>value = 5419.722>, fillcolor="#e5813952"] ;
214 -> 215 ;
216 [label=<MORWELL_MinT_85280 &le; 6.65<br/>mse = 27999.732<br/>samples = 41<br/>value = 5461.22>, fillcolor="#e5813953"] ;
215 -> 216 ;
217 [label=<MORWELL_MinT_85280 &le; 5.1<br/>mse = 17391.727<br/>samples = 31<br/>value = 5492.581>, fillcolor="#e5813954"] ;
216 -> 217 ;
218 [label=<mse = 20133.75<br/>samples = 20<br/>value = 5517.5>, fillcolor="#e5813955"] ;
217 -> 218 ;
219 [label=<mse = 9224.38<br/>samples = 11<br/>value = 5447.273>, fillcolor="#e5813953"] ;
217 -> 219 ;
220 [label=<mse = 48384.0<br/>samples = 10<br/>value = 5364.0>, fillcolor="#e5813950"] ;
216 -> 220 ;
221 [label=<mse = 24281.361<br/>samples = 13<br/>value = 5288.846>, fillcolor="#e581394d"] ;
215 -> 221 ;
222 [label=<MORWELL_MaxT_85280 &le; 15.9<br/>mse = 33770.876<br/>samples = 55<br/>value = 5286.182>, fillcolor="#e581394d"] ;
214 -> 222 ;
223 [label=<MILDURA-AIRPORT_MaxT_76031 &le; 15.65<br/>mse = 32019.333<br/>samples = 45<br/>value = 5319.667>, fillcolor="#e581394e"] ;
222 -> 223 ;
224 [label=<mse = 25953.97<br/>samples = 23<br/>value = 5377.826>, fillcolor="#e5813950"] ;
223 -> 224 ;
225 [label=<mse = 31127.118<br/>samples = 22<br/>value = 5258.864>, fillcolor="#e581394c"] ;
223 -> 225 ;
226 [label=<mse = 13902.25<br/>samples = 10<br/>value = 5135.5>, fillcolor="#e5813947"] ;
222 -> 226 ;
227 [label=<Hour_of_day &le; 1.75<br/>mse = 40951.492<br/>samples = 218<br/>value = 5572.087>, fillcolor="#e5813957"] ;
199 -> 227 ;
228 [label=<MELBOURNE-AIRPORT_MinT_86282 &le; 6.95<br/>mse = 34837.993<br/>samples = 109<br/>value = 5650.734>, fillcolor="#e581395a"] ;
227 -> 228 ;
229 [label=<MELBOURNE-AIRPORT_MaxT_86282 &le; 14.65<br/>mse = 30899.451<br/>samples = 54<br/>value = 5715.741>, fillcolor="#e581395d"] ;
228 -> 229 ;
230 [label=<MORWELL_MinT_85280 &le; 5.7<br/>mse = 28273.914<br/>samples = 41<br/>value = 5753.293>, fillcolor="#e581395e"] ;
229 -> 230 ;
231 [label=<mse = 20641.787<br/>samples = 22<br/>value = 5808.409>, fillcolor="#e5813960"] ;
230 -> 231 ;
232 [label=<mse = 29520.776<br/>samples = 19<br/>value = 5689.474>, fillcolor="#e581395c"] ;
230 -> 232 ;
233 [label=<mse = 20706.213<br/>samples = 13<br/>value = 5597.308>, fillcolor="#e5813958"] ;
229 -> 233 ;
234 [label=<MORWELL_MaxT_85280 &le; 15.9<br/>mse = 30482.264<br/>samples = 55<br/>value = 5586.909>, fillcolor="#e5813958"] ;
228 -> 234 ;
235 [label=<MELBOURNE-AIRPORT_MaxT_86282 &le; 12.45<br/>mse = 28663.284<br/>samples = 45<br/>value = 5620.222>, fillcolor="#e5813959"] ;
234 -> 235 ;
236 [label=<mse = 19270.0<br/>samples = 10<br/>value = 5710.0>, fillcolor="#e581395c"] ;
235 -> 236 ;
237 [label=<MELBOURNE-AIRPORT_MaxT_86282 &le; 13.65<br/>mse = 28386.245<br/>samples = 35<br/>value = 5594.571>, fillcolor="#e5813958"] ;
235 -> 237 ;
238 [label=<mse = 30619.835<br/>samples = 11<br/>value = 5497.727>, fillcolor="#e5813955"] ;
237 -> 238 ;
239 [label=<MILDURA-AIRPORT_MaxT_76031 &le; 16.05<br/>mse = 21093.707<br/>samples = 24<br/>value = 5638.958>, fillcolor="#e581395a"] ;
237 -> 239 ;
240 [label=<mse = 18855.25<br/>samples = 10<br/>value = 5696.5>, fillcolor="#e581395c"] ;
239 -> 240 ;
241 [label=<mse = 18638.265<br/>samples = 14<br/>value = 5597.857>, fillcolor="#e5813958"] ;
239 -> 241 ;
242 [label=<mse = 11201.0<br/>samples = 10<br/>value = 5437.0>, fillcolor="#e5813952"] ;
234 -> 242 ;
243 [label=<MELBOURNE-AIRPORT_MinT_86282 &le; 6.95<br/>mse = 34694.357<br/>samples = 109<br/>value = 5493.44>, fillcolor="#e5813954"] ;
227 -> 243 ;
244 [label=<MELBOURNE-AIRPORT_MaxT_86282 &le; 14.65<br/>mse = 27662.389<br/>samples = 54<br/>value = 5566.019>, fillcolor="#e5813957"] ;
243 -> 244 ;
245 [label=<MORWELL_MinT_85280 &le; 5.7<br/>mse = 24667.222<br/>samples = 41<br/>value = 5602.561>, fillcolor="#e5813958"] ;
244 -> 245 ;
246 [label=<mse = 16457.231<br/>samples = 22<br/>value = 5653.636>, fillcolor="#e581395a"] ;
245 -> 246 ;
247 [label=<mse = 27655.402<br/>samples = 19<br/>value = 5543.421>, fillcolor="#e5813956"] ;
245 -> 247 ;
248 [label=<mse = 19614.793<br/>samples = 13<br/>value = 5450.769>, fillcolor="#e5813953"] ;
244 -> 248 ;
249 [label=<MORWELL_MaxT_85280 &le; 15.9<br/>mse = 31348.876<br/>samples = 55<br/>value = 5422.182>, fillcolor="#e5813952"] ;
243 -> 249 ;
250 [label=<MILDURA-AIRPORT_MaxT_76031 &le; 15.65<br/>mse = 29512.173<br/>samples = 45<br/>value = 5454.778>, fillcolor="#e5813953"] ;
249 -> 250 ;
251 [label=<mse = 28584.216<br/>samples = 23<br/>value = 5506.957>, fillcolor="#e5813955"] ;
250 -> 251 ;
252 [label=<mse = 24660.176<br/>samples = 22<br/>value = 5400.227>, fillcolor="#e5813951"] ;
250 -> 252 ;
253 [label=<mse = 13317.25<br/>samples = 10<br/>value = 5275.5>, fillcolor="#e581394d"] ;
249 -> 253 ;
254 [label=<MELBOURNE-AIRPORT_MinT_86282 &le; 4.3<br/>mse = 59819.42<br/>samples = 896<br/>value = 5297.511>, fillcolor="#e581394d"] ;
168 -> 254 ;
255 [label=<CAPE-NELSON_MinT_90184 &le; 4.65<br/>mse = 51064.527<br/>samples = 240<br/>value = 5446.188>, fillcolor="#e5813953"] ;
254 -> 255 ;
256 [label=<MELBOURNE-AIRPORT_MinT_86282 &le; 1.85<br/>mse = 19306.25<br/>samples = 24<br/>value = 5725.0>, fillcolor="#e581395d"] ;
255 -> 256 ;
257 [label=<mse = 13131.25<br/>samples = 12<br/>value = 5782.5>, fillcolor="#e581395f"] ;
256 -> 257 ;
258 [label=<mse = 18868.75<br/>samples = 12<br/>value = 5667.5>, fillcolor="#e581395b"] ;
256 -> 258 ;
259 [label=<Hour_of_day &le; 0.75<br/>mse = 44996.137<br/>samples = 216<br/>value = 5415.208>, fillcolor="#e5813952"] ;
255 -> 259 ;
260 [label=<MORWELL_MinT_85280 &le; 2.4<br/>mse = 33630.247<br/>samples = 54<br/>value = 5552.222>, fillcolor="#e5813957"] ;
259 -> 260 ;
261 [label=<MELBOURNE-AIRPORT_MinT_86282 &le; 2.6<br/>mse = 27768.381<br/>samples = 27<br/>value = 5619.63>, fillcolor="#e5813959"] ;
260 -> 261 ;
262 [label=<mse = 17342.561<br/>samples = 17<br/>value = 5670.294>, fillcolor="#e581395b"] ;
261 -> 262 ;
263 [label=<mse = 33710.25<br/>samples = 10<br/>value = 5533.5>, fillcolor="#e5813956"] ;
261 -> 263 ;
264 [label=<CAPE-NELSON_MinT_90184 &le; 7.15<br/>mse = 30404.595<br/>samples = 27<br/>value = 5484.815>, fillcolor="#e5813954"] ;
260 -> 264 ;
265 [label=<mse = 25705.785<br/>samples = 11<br/>value = 5553.182>, fillcolor="#e5813957"] ;
264 -> 265 ;
266 [label=<mse = 28212.402<br/>samples = 16<br/>value = 5437.812>, fillcolor="#e5813952"] ;
264 -> 266 ;
267 [label=<Year &le; 2011.5<br/>mse = 40441.298<br/>samples = 162<br/>value = 5369.537>, fillcolor="#e5813950"] ;
259 -> 267 ;
268 [label=<Hour_of_day &le; 1.25<br/>mse = 40472.406<br/>samples = 42<br/>value = 5498.214>, fillcolor="#e5813955"] ;
267 -> 268 ;
269 [label=<mse = 27947.066<br/>samples = 14<br/>value = 5358.929>, fillcolor="#e5813950"] ;
268 -> 269 ;
270 [label=<Hour_of_day &le; 1.75<br/>mse = 32184.694<br/>samples = 28<br/>value = 5567.857>, fillcolor="#e5813957"] ;
268 -> 270 ;
271 [label=<mse = 25325.638<br/>samples = 14<br/>value = 5641.071>, fillcolor="#e581395a"] ;
270 -> 271 ;
272 [label=<mse = 28323.087<br/>samples = 14<br/>value = 5494.643>, fillcolor="#e5813955"] ;
270 -> 272 ;
273 [label=<MORWELL_MinT_85280 &le; 2.4<br/>mse = 32606.833<br/>samples = 120<br/>value = 5324.5>, fillcolor="#e581394e"] ;
267 -> 273 ;
274 [label=<Year &le; 2012.5<br/>mse = 29746.972<br/>samples = 60<br/>value = 5401.167>, fillcolor="#e5813951"] ;
273 -> 274 ;
275 [label=<CAPE-NELSON_MaxT_90184 &le; 13.8<br/>mse = 25464.139<br/>samples = 30<br/>value = 5479.833>, fillcolor="#e5813954"] ;
274 -> 275 ;
276 [label=<mse = 31506.0<br/>samples = 15<br/>value = 5412.0>, fillcolor="#e5813952"] ;
275 -> 276 ;
277 [label=<mse = 10219.556<br/>samples = 15<br/>value = 5547.667>, fillcolor="#e5813956"] ;
275 -> 277 ;
278 [label=<Hour_of_day &le; 1.75<br/>mse = 21652.917<br/>samples = 30<br/>value = 5322.5>, fillcolor="#e581394e"] ;
274 -> 278 ;
279 [label=<mse = 13200.0<br/>samples = 20<br/>value = 5390.0>, fillcolor="#e5813951"] ;
278 -> 279 ;
280 [label=<mse = 11221.25<br/>samples = 10<br/>value = 5187.5>, fillcolor="#e5813949"] ;
278 -> 280 ;
281 [label=<MELBOURNE-AIRPORT_MaxT_86282 &le; 13.2<br/>mse = 23711.139<br/>samples = 60<br/>value = 5247.833>, fillcolor="#e581394c"] ;
273 -> 281 ;
282 [label=<mse = 27667.8<br/>samples = 21<br/>value = 5174.762>, fillcolor="#e5813949"] ;
281 -> 282 ;
283 [label=<Hour_of_day &le; 1.75<br/>mse = 17157.429<br/>samples = 39<br/>value = 5287.179>, fillcolor="#e581394d"] ;
281 -> 283 ;
284 [label=<Hour_of_day &le; 1.25<br/>mse = 18144.379<br/>samples = 26<br/>value = 5311.923>, fillcolor="#e581394e"] ;
283 -> 284 ;
285 [label=<mse = 19976.331<br/>samples = 13<br/>value = 5260.769>, fillcolor="#e581394c"] ;
284 -> 285 ;
286 [label=<mse = 11078.994<br/>samples = 13<br/>value = 5363.077>, fillcolor="#e5813950"] ;
284 -> 286 ;
287 [label=<mse = 11510.059<br/>samples = 13<br/>value = 5237.692>, fillcolor="#e581394b"] ;
283 -> 287 ;
288 [label=<Hour_of_day &le; 0.75<br/>mse = 51976.677<br/>samples = 656<br/>value = 5243.117>, fillcolor="#e581394b"] ;
254 -> 288 ;
289 [label=<MELBOURNE-AIRPORT_MinT_86282 &le; 9.15<br/>mse = 27616.027<br/>samples = 164<br/>value = 5396.555>, fillcolor="#e5813951"] ;
288 -> 289 ;
290 [label=<MELBOURNE-AIRPORT_MinT_86282 &le; 4.85<br/>mse = 24738.465<br/>samples = 142<br/>value = 5415.986>, fillcolor="#e5813952"] ;
289 -> 290 ;
291 [label=<mse = 14757.188<br/>samples = 20<br/>value = 5501.25>, fillcolor="#e5813955"] ;
290 -> 291 ;
292 [label=<Year &le; 2012.5<br/>mse = 24987.566<br/>samples = 122<br/>value = 5402.008>, fillcolor="#e5813951"] ;
290 -> 292 ;
293 [label=<MORWELL_MinT_85280 &le; 6.55<br/>mse = 25284.532<br/>samples = 92<br/>value = 5386.033>, fillcolor="#e5813951"] ;
292 -> 293 ;
294 [label=<MORWELL_MinT_85280 &le; 2.25<br/>mse = 27785.91<br/>samples = 52<br/>value = 5352.885>, fillcolor="#e581394f"] ;
293 -> 294 ;
295 [label=<mse = 15466.222<br/>samples = 15<br/>value = 5437.333>, fillcolor="#e5813952"] ;
294 -> 295 ;
296 [label=<CAPE-NELSON_MaxT_90184 &le; 13.35<br/>mse = 28717.093<br/>samples = 37<br/>value = 5318.649>, fillcolor="#e581394e"] ;
294 -> 296 ;
297 [label=<mse = 31475.694<br/>samples = 18<br/>value = 5252.5>, fillcolor="#e581394c"] ;
296 -> 297 ;
298 [label=<mse = 18031.163<br/>samples = 19<br/>value = 5381.316>, fillcolor="#e5813950"] ;
296 -> 298 ;
299 [label=<MELBOURNE-AIRPORT_MaxT_86282 &le; 13.95<br/>mse = 18747.359<br/>samples = 40<br/>value = 5429.125>, fillcolor="#e5813952"] ;
293 -> 299 ;
300 [label=<mse = 9865.42<br/>samples = 21<br/>value = 5486.905>, fillcolor="#e5813954"] ;
299 -> 300 ;
301 [label=<mse = 20795.983<br/>samples = 19<br/>value = 5365.263>, fillcolor="#e5813950"] ;
299 -> 301 ;
302 [label=<MORWELL_MinT_85280 &le; 6.95<br/>mse = 20894.0<br/>samples = 30<br/>value = 5451.0>, fillcolor="#e5813953"] ;
292 -> 302 ;
303 [label=<mse = 13986.0<br/>samples = 20<br/>value = 5493.0>, fillcolor="#e5813954"] ;
302 -> 303 ;
304 [label=<mse = 24126.0<br/>samples = 10<br/>value = 5367.0>, fillcolor="#e5813950"] ;
302 -> 304 ;
305 [label=<mse = 28022.572<br/>samples = 22<br/>value = 5271.136>, fillcolor="#e581394c"] ;
289 -> 305 ;
306 [label=<Year &le; 2012.5<br/>mse = 49633.308<br/>samples = 492<br/>value = 5191.972>, fillcolor="#e5813949"] ;
288 -> 306 ;
307 [label=<Year &le; 2011.5<br/>mse = 36854.545<br/>samples = 330<br/>value = 5270.03>, fillcolor="#e581394c"] ;
306 -> 307 ;
308 [label=<Hour_of_day &le; 1.25<br/>mse = 47434.142<br/>samples = 144<br/>value = 5339.757>, fillcolor="#e581394f"] ;
307 -> 308 ;
309 [label=<MELBOURNE-AIRPORT_MaxT_86282 &le; 14.35<br/>mse = 36554.069<br/>samples = 48<br/>value = 5222.188>, fillcolor="#e581394b"] ;
308 -> 309 ;
310 [label=<MORWELL_MaxT_85280 &le; 12.65<br/>mse = 21472.737<br/>samples = 31<br/>value = 5280.806>, fillcolor="#e581394d"] ;
309 -> 310 ;
311 [label=<mse = 25275.386<br/>samples = 18<br/>value = 5236.944>, fillcolor="#e581394b"] ;
310 -> 311 ;
312 [label=<mse = 9855.325<br/>samples = 13<br/>value = 5341.538>, fillcolor="#e581394f"] ;
310 -> 312 ;
313 [label=<mse = 46363.149<br/>samples = 17<br/>value = 5115.294>, fillcolor="#e5813947"] ;
309 -> 313 ;
314 [label=<Hour_of_day &le; 1.75<br/>mse = 42507.248<br/>samples = 96<br/>value = 5398.542>, fillcolor="#e5813951"] ;
308 -> 314 ;
315 [label=<MELBOURNE-AIRPORT_MaxT_86282 &le; 14.35<br/>mse = 35921.701<br/>samples = 48<br/>value = 5479.583>, fillcolor="#e5813954"] ;
314 -> 315 ;
316 [label=<MORWELL_MaxT_85280 &le; 12.95<br/>mse = 20929.605<br/>samples = 31<br/>value = 5540.484>, fillcolor="#e5813956"] ;
315 -> 316 ;
317 [label=<mse = 20030.25<br/>samples = 20<br/>value = 5493.5>, fillcolor="#e5813954"] ;
316 -> 317 ;
318 [label=<mse = 11253.719<br/>samples = 11<br/>value = 5625.909>, fillcolor="#e5813959"] ;
316 -> 318 ;
319 [label=<mse = 44164.014<br/>samples = 17<br/>value = 5368.529>, fillcolor="#e5813950"] ;
315 -> 319 ;
320 [label=<MELBOURNE-AIRPORT_MaxT_86282 &le; 14.35<br/>mse = 35957.292<br/>samples = 48<br/>value = 5317.5>, fillcolor="#e581394e"] ;
314 -> 320 ;
321 [label=<MORWELL_MaxT_85280 &le; 12.65<br/>mse = 21205.151<br/>samples = 31<br/>value = 5376.452>, fillcolor="#e5813950"] ;
320 -> 321 ;
322 [label=<mse = 18493.21<br/>samples = 18<br/>value = 5316.111>, fillcolor="#e581394e"] ;
321 -> 322 ;
323 [label=<mse = 12938.462<br/>samples = 13<br/>value = 5460.0>, fillcolor="#e5813953"] ;
321 -> 323 ;
324 [label=<mse = 44964.706<br/>samples = 17<br/>value = 5210.0>, fillcolor="#e581394a"] ;
320 -> 324 ;
325 [label=<MORWELL_MaxT_85280 &le; 16.6<br/>mse = 21985.863<br/>samples = 186<br/>value = 5216.048>, fillcolor="#e581394a"] ;
307 -> 325 ;
326 [label=<Hour_of_day &le; 1.25<br/>mse = 19574.343<br/>samples = 171<br/>value = 5232.69>, fillcolor="#e581394b"] ;
325 -> 326 ;
327 [label=<CAPE-NELSON_MinT_90184 &le; 10.05<br/>mse = 13331.086<br/>samples = 57<br/>value = 5179.035>, fillcolor="#e5813949"] ;
326 -> 327 ;
328 [label=<CAPE-NELSON_MaxT_90184 &le; 13.6<br/>mse = 13857.793<br/>samples = 36<br/>value = 5203.611>, fillcolor="#e581394a"] ;
327 -> 328 ;
329 [label=<mse = 15840.688<br/>samples = 20<br/>value = 5170.75>, fillcolor="#e5813949"] ;
328 -> 329 ;
330 [label=<mse = 8342.09<br/>samples = 16<br/>value = 5244.688>, fillcolor="#e581394b"] ;
328 -> 330 ;
331 [label=<mse = 9617.8<br/>samples = 21<br/>value = 5136.905>, fillcolor="#e5813947"] ;
327 -> 331 ;
332 [label=<Hour_of_day &le; 1.75<br/>mse = 20536.829<br/>samples = 114<br/>value = 5259.518>, fillcolor="#e581394c"] ;
326 -> 332 ;
333 [label=<MILDURA-AIRPORT_MaxT_76031 &le; 14.45<br/>mse = 16214.882<br/>samples = 57<br/>value = 5326.491>, fillcolor="#e581394e"] ;
332 -> 333 ;
334 [label=<mse = 18259.091<br/>samples = 11<br/>value = 5400.0>, fillcolor="#e5813951"] ;
333 -> 334 ;
335 [label=<mse = 14124.905<br/>samples = 46<br/>value = 5308.913>, fillcolor="#e581394e"] ;
333 -> 335 ;
336 [label=<MILDURA-AIRPORT_MaxT_76031 &le; 14.45<br/>mse = 15887.827<br/>samples = 57<br/>value = 5192.544>, fillcolor="#e581394a"] ;
332 -> 336 ;
337 [label=<mse = 16556.612<br/>samples = 11<br/>value = 5259.545>, fillcolor="#e581394c"] ;
336 -> 337 ;
338 [label=<mse = 14397.684<br/>samples = 46<br/>value = 5176.522>, fillcolor="#e5813949"] ;
336 -> 338 ;
339 [label=<mse = 10328.222<br/>samples = 15<br/>value = 5026.333>, fillcolor="#e5813943"] ;
325 -> 339 ;
340 [label=<Hour_of_day &le; 1.75<br/>mse = 37968.381<br/>samples = 162<br/>value = 5032.963>, fillcolor="#e5813944"] ;
306 -> 340 ;
341 [label=<MELBOURNE-AIRPORT_MinT_86282 &le; 9.15<br/>mse = 27839.506<br/>samples = 108<br/>value = 5101.111>, fillcolor="#e5813946"] ;
340 -> 341 ;
342 [label=<MELBOURNE-AIRPORT_MaxT_86282 &le; 16.2<br/>mse = 21132.762<br/>samples = 78<br/>value = 5146.859>, fillcolor="#e5813948"] ;
341 -> 342 ;
343 [label=<Hour_of_day &le; 1.25<br/>mse = 18904.591<br/>samples = 66<br/>value = 5123.788>, fillcolor="#e5813947"] ;
342 -> 343 ;
344 [label=<MORWELL_MinT_85280 &le; 6.95<br/>mse = 14812.305<br/>samples = 33<br/>value = 5172.576>, fillcolor="#e5813949"] ;
343 -> 344 ;
345 [label=<mse = 8845.3<br/>samples = 22<br/>value = 5198.864>, fillcolor="#e581394a"] ;
344 -> 345 ;
346 [label=<mse = 22600.0<br/>samples = 11<br/>value = 5120.0>, fillcolor="#e5813947"] ;
344 -> 346 ;
347 [label=<CAPE-NELSON_MaxT_90184 &le; 14.75<br/>mse = 18236.364<br/>samples = 33<br/>value = 5075.0>, fillcolor="#e5813945"] ;
343 -> 347 ;
348 [label=<mse = 19837.81<br/>samples = 22<br/>value = 5039.091>, fillcolor="#e5813944"] ;
347 -> 348 ;
349 [label=<mse = 7296.694<br/>samples = 11<br/>value = 5146.818>, fillcolor="#e5813948"] ;
347 -> 349 ;
350 [label=<mse = 14358.854<br/>samples = 12<br/>value = 5273.75>, fillcolor="#e581394c"] ;
342 -> 350 ;
351 [label=<MILDURA-AIRPORT_MaxT_76031 &le; 16.6<br/>mse = 25687.806<br/>samples = 30<br/>value = 4982.167>, fillcolor="#e5813942"] ;
341 -> 351 ;
352 [label=<mse = 7165.25<br/>samples = 10<br/>value = 5141.5>, fillcolor="#e5813948"] ;
351 -> 352 ;
353 [label=<mse = 15908.75<br/>samples = 20<br/>value = 4902.5>, fillcolor="#e581393f"] ;
351 -> 353 ;
354 [label=<MELBOURNE-AIRPORT_MinT_86282 &le; 8.3<br/>mse = 30361.111<br/>samples = 54<br/>value = 4896.667>, fillcolor="#e581393f"] ;
340 -> 354 ;
355 [label=<CAPE-NELSON_MaxT_90184 &le; 14.75<br/>mse = 21820.483<br/>samples = 32<br/>value = 4964.219>, fillcolor="#e5813941"] ;
354 -> 355 ;
356 [label=<mse = 26444.83<br/>samples = 18<br/>value = 4908.056>, fillcolor="#e581393f"] ;
355 -> 356 ;
357 [label=<mse = 6605.102<br/>samples = 14<br/>value = 5036.429>, fillcolor="#e5813944"] ;
355 -> 357 ;
358 [label=<mse = 26491.787<br/>samples = 22<br/>value = 4798.409>, fillcolor="#e581393b"] ;
354 -> 358 ;
359 [label=<Hour_of_day &le; 0.25<br/>mse = 107320.422<br/>samples = 6218<br/>value = 4960.506>, fillcolor="#e5813941"] ;
3 -> 359 ;
360 [label=<MELBOURNE-AIRPORT_MinT_86282 &le; 17.75<br/>mse = 87768.929<br/>samples = 1242<br/>value = 5204.118>, fillcolor="#e581394a"] ;
359 -> 360 ;
361 [label=<winter &le; 0.5<br/>mse = 73115.521<br/>samples = 1154<br/>value = 5177.465>, fillcolor="#e5813949"] ;
360 -> 361 ;
362 [label=<MORWELL_MinT_85280 &le; 3.65<br/>mse = 64925.316<br/>samples = 1076<br/>value = 5150.753>, fillcolor="#e5813948"] ;
361 -> 362 ;
363 [label=<MORWELL_MaxT_85280 &le; 18.1<br/>mse = 63601.917<br/>samples = 65<br/>value = 5448.923>, fillcolor="#e5813953"] ;
362 -> 363 ;
364 [label=<CAPE-NELSON_MaxT_90184 &le; 15.65<br/>mse = 44429.177<br/>samples = 28<br/>value = 5571.964>, fillcolor="#e5813957"] ;
363 -> 364 ;
365 [label=<mse = 59182.25<br/>samples = 10<br/>value = 5439.5>, fillcolor="#e5813953"] ;
364 -> 365 ;
366 [label=<mse = 21069.136<br/>samples = 18<br/>value = 5645.556>, fillcolor="#e581395a"] ;
364 -> 366 ;
367 [label=<MILDURA-AIRPORT_MaxT_76031 &le; 24.25<br/>mse = 57984.478<br/>samples = 37<br/>value = 5355.811>, fillcolor="#e581394f"] ;
363 -> 367 ;
368 [label=<mse = 45981.361<br/>samples = 13<br/>value = 5473.846>, fillcolor="#e5813954"] ;
367 -> 368 ;
369 [label=<CAPE-NELSON_MaxT_90184 &le; 21.55<br/>mse = 52851.693<br/>samples = 24<br/>value = 5291.875>, fillcolor="#e581394d"] ;
367 -> 369 ;
370 [label=<mse = 45541.716<br/>samples = 13<br/>value = 5209.231>, fillcolor="#e581394a"] ;
369 -> 370 ;
371 [label=<mse = 43879.339<br/>samples = 11<br/>value = 5389.545>, fillcolor="#e5813951"] ;
369 -> 371 ;
372 [label=<CAPE-NELSON_MinT_90184 &le; 10.75<br/>mse = 58926.922<br/>samples = 1011<br/>value = 5131.583>, fillcolor="#e5813947"] ;
362 -> 372 ;
373 [label=<shoulder &le; 0.5<br/>mse = 64120.187<br/>samples = 185<br/>value = 5240.595>, fillcolor="#e581394b"] ;
372 -> 373 ;
374 [label=<mse = 54682.313<br/>samples = 21<br/>value = 5022.857>, fillcolor="#e5813943"] ;
373 -> 374 ;
375 [label=<Year &le; 2012.5<br/>mse = 58480.603<br/>samples = 164<br/>value = 5268.476>, fillcolor="#e581394c"] ;
373 -> 375 ;
376 [label=<MILDURA-AIRPORT_MaxT_76031 &le; 23.75<br/>mse = 55429.828<br/>samples = 118<br/>value = 5224.788>, fillcolor="#e581394b"] ;
375 -> 376 ;
377 [label=<CAPE-NELSON_MaxT_90184 &le; 15.05<br/>mse = 63980.17<br/>samples = 64<br/>value = 5286.953>, fillcolor="#e581394d"] ;
376 -> 377 ;
378 [label=<MORWELL_MinT_85280 &le; 8.4<br/>mse = 44369.333<br/>samples = 30<br/>value = 5163.0>, fillcolor="#e5813948"] ;
377 -> 378 ;
379 [label=<mse = 32799.688<br/>samples = 20<br/>value = 5248.75>, fillcolor="#e581394c"] ;
378 -> 379 ;
380 [label=<mse = 23390.25<br/>samples = 10<br/>value = 4991.5>, fillcolor="#e5813942"] ;
378 -> 380 ;
381 [label=<CAPE-NELSON_MinT_90184 &le; 9.85<br/>mse = 55765.16<br/>samples = 34<br/>value = 5396.324>, fillcolor="#e5813951"] ;
377 -> 381 ;
382 [label=<mse = 42844.444<br/>samples = 18<br/>value = 5503.333>, fillcolor="#e5813955"] ;
381 -> 382 ;
383 [label=<mse = 42925.684<br/>samples = 16<br/>value = 5275.938>, fillcolor="#e581394d"] ;
381 -> 383 ;
384 [label=<MORWELL_MinT_85280 &le; 5.45<br/>mse = 35287.654<br/>samples = 54<br/>value = 5151.111>, fillcolor="#e5813948"] ;
376 -> 384 ;
385 [label=<mse = 30964.506<br/>samples = 18<br/>value = 5217.222>, fillcolor="#e581394a"] ;
384 -> 385 ;
386 [label=<MELBOURNE-AIRPORT_MinT_86282 &le; 7.65<br/>mse = 34171.219<br/>samples = 36<br/>value = 5118.056>, fillcolor="#e5813947"] ;
384 -> 386 ;
387 [label=<mse = 13601.91<br/>samples = 12<br/>value = 5050.417>, fillcolor="#e5813944"] ;
386 -> 387 ;
388 [label=<MORWELL_MinT_85280 &le; 9.75<br/>mse = 41024.609<br/>samples = 24<br/>value = 5151.875>, fillcolor="#e5813948"] ;
386 -> 388 ;
389 [label=<mse = 31442.975<br/>samples = 11<br/>value = 5225.455>, fillcolor="#e581394b"] ;
388 -> 389 ;
390 [label=<mse = 40674.852<br/>samples = 13<br/>value = 5089.615>, fillcolor="#e5813946"] ;
388 -> 390 ;
391 [label=<MELBOURNE-AIRPORT_MinT_86282 &le; 8.6<br/>mse = 48851.335<br/>samples = 46<br/>value = 5380.543>, fillcolor="#e5813950"] ;
375 -> 391 ;
392 [label=<CAPE-NELSON_MaxT_90184 &le; 17.0<br/>mse = 44653.846<br/>samples = 26<br/>value = 5450.0>, fillcolor="#e5813953"] ;
391 -> 392 ;
393 [label=<mse = 39671.429<br/>samples = 14<br/>value = 5370.0>, fillcolor="#e5813950"] ;
392 -> 393 ;
394 [label=<mse = 34288.889<br/>samples = 12<br/>value = 5543.333>, fillcolor="#e5813956"] ;
392 -> 394 ;
395 [label=<mse = 39883.688<br/>samples = 20<br/>value = 5290.25>, fillcolor="#e581394d"] ;
391 -> 395 ;
396 [label=<MELBOURNE-AIRPORT_MinT_86282 &le; 15.25<br/>mse = 54506.079<br/>samples = 826<br/>value = 5107.167>, fillcolor="#e5813946"] ;
372 -> 396 ;
397 [label=<Year &le; 2012.5<br/>mse = 50176.194<br/>samples = 693<br/>value = 5079.625>, fillcolor="#e5813945"] ;
396 -> 397 ;
398 [label=<Year &le; 2009.5<br/>mse = 47835.933<br/>samples = 541<br/>value = 5055.397>, fillcolor="#e5813945"] ;
397 -> 398 ;
399 [label=<MELBOURNE-AIRPORT_MaxT_86282 &le; 19.15<br/>mse = 39603.183<br/>samples = 133<br/>value = 5132.256>, fillcolor="#e5813947"] ;
398 -> 399 ;
400 [label=<MILDURA-AIRPORT_MaxT_76031 &le; 23.3<br/>mse = 37395.155<br/>samples = 26<br/>value = 5229.808>, fillcolor="#e581394b"] ;
399 -> 400 ;
401 [label=<mse = 43221.556<br/>samples = 15<br/>value = 5314.667>, fillcolor="#e581394e"] ;
400 -> 401 ;
402 [label=<mse = 6240.083<br/>samples = 11<br/>value = 5114.091>, fillcolor="#e5813947"] ;
400 -> 402 ;
403 [label=<CAPE-NELSON_MaxT_90184 &le; 20.65<br/>mse = 37265.425<br/>samples = 107<br/>value = 5108.551>, fillcolor="#e5813946"] ;
399 -> 403 ;
404 [label=<MORWELL_MaxT_85280 &le; 20.4<br/>mse = 33990.783<br/>samples = 74<br/>value = 5064.122>, fillcolor="#e5813945"] ;
403 -> 404 ;
405 [label=<mse = 30793.576<br/>samples = 12<br/>value = 4924.583>, fillcolor="#e5813940"] ;
404 -> 405 ;
406 [label=<mse = 30111.629<br/>samples = 62<br/>value = 5091.129>, fillcolor="#e5813946"] ;
404 -> 406 ;
407 [label=<MELBOURNE-AIRPORT_MinT_86282 &le; 12.55<br/>mse = 30255.785<br/>samples = 33<br/>value = 5208.182>, fillcolor="#e581394a"] ;
403 -> 407 ;
408 [label=<mse = 25324.931<br/>samples = 19<br/>value = 5139.737>, fillcolor="#e5813948"] ;
407 -> 408 ;
409 [label=<mse = 21961.352<br/>samples = 14<br/>value = 5301.071>, fillcolor="#e581394d"] ;
407 -> 409 ;
410 [label=<shoulder &le; 0.5<br/>mse = 47966.304<br/>samples = 408<br/>value = 5030.343>, fillcolor="#e5813944"] ;
398 -> 410 ;
411 [label=<CAPE-NELSON_MaxT_90184 &le; 20.55<br/>mse = 45016.127<br/>samples = 162<br/>value = 4976.389>, fillcolor="#e5813942"] ;
410 -> 411 ;
412 [label=<CAPE-NELSON_MaxT_90184 &le; 17.3<br/>mse = 38966.783<br/>samples = 113<br/>value = 4915.177>, fillcolor="#e581393f"] ;
411 -> 412 ;
413 [label=<mse = 39773.688<br/>samples = 20<br/>value = 4800.25>, fillcolor="#e581393b"] ;
412 -> 413 ;
414 [label=<mse = 35341.924<br/>samples = 93<br/>value = 4939.892>, fillcolor="#e5813940"] ;
412 -> 414 ;
415 [label=<MORWELL_MaxT_85280 &le; 26.35<br/>mse = 30399.105<br/>samples = 49<br/>value = 5117.551>, fillcolor="#e5813947"] ;
411 -> 415 ;
416 [label=<mse = 29977.168<br/>samples = 14<br/>value = 5021.786>, fillcolor="#e5813943"] ;
415 -> 416 ;
417 [label=<mse = 25432.122<br/>samples = 35<br/>value = 5155.857>, fillcolor="#e5813948"] ;
415 -> 417 ;
418 [label=<MELBOURNE-AIRPORT_MinT_86282 &le; 10.55<br/>mse = 46729.622<br/>samples = 246<br/>value = 5065.874>, fillcolor="#e5813945"] ;
410 -> 418 ;
419 [label=<workdayVIC &le; 0.5<br/>mse = 46353.009<br/>samples = 107<br/>value = 5120.981>, fillcolor="#e5813947"] ;
418 -> 419 ;
420 [label=<mse = 54865.997<br/>samples = 38<br/>value = 5061.053>, fillcolor="#e5813945"] ;
419 -> 420 ;
421 [label=<mse = 38597.522<br/>samples = 69<br/>value = 5153.986>, fillcolor="#e5813948"] ;
419 -> 421 ;
422 [label=<MORWELL_MinT_85280 &le; 14.55<br/>mse = 42882.32<br/>samples = 139<br/>value = 5023.453>, fillcolor="#e5813943"] ;
418 -> 422 ;
423 [label=<mse = 42277.43<br/>samples = 125<br/>value = 5002.36>, fillcolor="#e5813943"] ;
422 -> 423 ;
424 [label=<mse = 8841.454<br/>samples = 14<br/>value = 5211.786>, fillcolor="#e581394a"] ;
422 -> 424 ;
425 [label=<MORWELL_MaxT_85280 &le; 17.45<br/>mse = 48980.847<br/>samples = 152<br/>value = 5165.855>, fillcolor="#e5813949"] ;
397 -> 425 ;
426 [label=<mse = 68453.186<br/>samples = 19<br/>value = 5301.842>, fillcolor="#e581394d"] ;
425 -> 426 ;
427 [label=<MORWELL_MaxT_85280 &le; 29.55<br/>mse = 43179.914<br/>samples = 133<br/>value = 5146.429>, fillcolor="#e5813948"] ;
425 -> 427 ;
428 [label=<CAPE-NELSON_MinT_90184 &le; 12.5<br/>mse = 38929.426<br/>samples = 114<br/>value = 5127.237>, fillcolor="#e5813947"] ;
427 -> 428 ;
429 [label=<MELBOURNE-AIRPORT_MaxT_86282 &le; 20.45<br/>mse = 23284.451<br/>samples = 39<br/>value = 5212.436>, fillcolor="#e581394a"] ;
428 -> 429 ;
430 [label=<mse = 22663.889<br/>samples = 18<br/>value = 5158.333>, fillcolor="#e5813948"] ;
429 -> 430 ;
431 [label=<mse = 19156.916<br/>samples = 21<br/>value = 5258.81>, fillcolor="#e581394c"] ;
429 -> 431 ;
432 [label=<MELBOURNE-AIRPORT_MinT_86282 &le; 14.5<br/>mse = 41327.396<br/>samples = 75<br/>value = 5082.933>, fillcolor="#e5813946"] ;
428 -> 432 ;
433 [label=<mse = 41534.155<br/>samples = 64<br/>value = 5062.031>, fillcolor="#e5813945"] ;
432 -> 433 ;
434 [label=<mse = 22792.975<br/>samples = 11<br/>value = 5204.545>, fillcolor="#e581394a"] ;
432 -> 434 ;
435 [label=<mse = 53213.296<br/>samples = 19<br/>value = 5261.579>, fillcolor="#e581394c"] ;
427 -> 435 ;
436 [label=<MILDURA-AIRPORT_MaxT_76031 &le; 38.25<br/>mse = 52519.467<br/>samples = 133<br/>value = 5250.677>, fillcolor="#e581394c"] ;
396 -> 436 ;
437 [label=<MORWELL_MaxT_85280 &le; 32.75<br/>mse = 42254.412<br/>samples = 115<br/>value = 5209.609>, fillcolor="#e581394a"] ;
436 -> 437 ;
438 [label=<CAPE-NELSON_MinT_90184 &le; 17.15<br/>mse = 40300.983<br/>samples = 97<br/>value = 5182.835>, fillcolor="#e5813949"] ;
437 -> 438 ;
439 [label=<MORWELL_MaxT_85280 &le; 21.05<br/>mse = 40245.904<br/>samples = 87<br/>value = 5167.529>, fillcolor="#e5813949"] ;
438 -> 439 ;
440 [label=<mse = 17544.0<br/>samples = 10<br/>value = 5286.0>, fillcolor="#e581394d"] ;
439 -> 440 ;
441 [label=<Year &le; 2009.5<br/>mse = 41134.694<br/>samples = 77<br/>value = 5152.143>, fillcolor="#e5813948"] ;
439 -> 441 ;
442 [label=<mse = 35053.114<br/>samples = 17<br/>value = 5242.941>, fillcolor="#e581394b"] ;
441 -> 442 ;
443 [label=<mse = 39860.076<br/>samples = 60<br/>value = 5126.417>, fillcolor="#e5813947"] ;
441 -> 443 ;
444 [label=<mse = 21009.0<br/>samples = 10<br/>value = 5316.0>, fillcolor="#e581394e"] ;
438 -> 444 ;
445 [label=<mse = 28101.543<br/>samples = 18<br/>value = 5353.889>, fillcolor="#e581394f"] ;
437 -> 445 ;
446 [label=<mse = 38483.719<br/>samples = 18<br/>value = 5513.056>, fillcolor="#e5813955"] ;
436 -> 446 ;
447 [label=<MELBOURNE-AIRPORT_MinT_86282 &le; 8.6<br/>mse = 40465.422<br/>samples = 78<br/>value = 5545.962>, fillcolor="#e5813956"] ;
361 -> 447 ;
448 [label=<CAPE-NELSON_MinT_90184 &le; 7.95<br/>mse = 31359.951<br/>samples = 45<br/>value = 5629.778>, fillcolor="#e5813959"] ;
447 -> 448 ;
449 [label=<mse = 9569.0<br/>samples = 10<br/>value = 5786.0>, fillcolor="#e581395f"] ;
448 -> 449 ;
450 [label=<Year &le; 2011.5<br/>mse = 28620.694<br/>samples = 35<br/>value = 5585.143>, fillcolor="#e5813958"] ;
448 -> 450 ;
451 [label=<MORWELL_MaxT_85280 &le; 17.6<br/>mse = 19111.806<br/>samples = 24<br/>value = 5533.333>, fillcolor="#e5813956"] ;
450 -> 451 ;
452 [label=<mse = 17355.74<br/>samples = 14<br/>value = 5583.214>, fillcolor="#e5813958"] ;
451 -> 452 ;
453 [label=<mse = 13210.25<br/>samples = 10<br/>value = 5463.5>, fillcolor="#e5813953"] ;
451 -> 453 ;
454 [label=<mse = 30733.058<br/>samples = 11<br/>value = 5698.182>, fillcolor="#e581395c"] ;
450 -> 454 ;
455 [label=<CAPE-NELSON_MaxT_90184 &le; 16.2<br/>mse = 30238.889<br/>samples = 33<br/>value = 5431.667>, fillcolor="#e5813952"] ;
447 -> 455 ;
456 [label=<mse = 29851.562<br/>samples = 16<br/>value = 5363.75>, fillcolor="#e5813950"] ;
455 -> 456 ;
457 [label=<mse = 22176.125<br/>samples = 17<br/>value = 5495.588>, fillcolor="#e5813955"] ;
455 -> 457 ;
458 [label=<MILDURA-AIRPORT_MaxT_76031 &le; 41.0<br/>mse = 148449.845<br/>samples = 88<br/>value = 5553.636>, fillcolor="#e5813957"] ;
360 -> 458 ;
459 [label=<MELBOURNE-AIRPORT_MinT_86282 &le; 22.35<br/>mse = 84602.214<br/>samples = 74<br/>value = 5468.311>, fillcolor="#e5813954"] ;
458 -> 459 ;
460 [label=<MILDURA-AIRPORT_MaxT_76031 &le; 35.0<br/>mse = 67625.824<br/>samples = 64<br/>value = 5418.359>, fillcolor="#e5813952"] ;
459 -> 460 ;
461 [label=<MELBOURNE-AIRPORT_MinT_86282 &le; 19.95<br/>mse = 56102.794<br/>samples = 39<br/>value = 5313.974>, fillcolor="#e581394e"] ;
460 -> 461 ;
462 [label=<MORWELL_MinT_85280 &le; 16.35<br/>mse = 39124.957<br/>samples = 24<br/>value = 5211.042>, fillcolor="#e581394a"] ;
461 -> 462 ;
463 [label=<mse = 30610.0<br/>samples = 10<br/>value = 5115.0>, fillcolor="#e5813947"] ;
462 -> 463 ;
464 [label=<mse = 33912.372<br/>samples = 14<br/>value = 5279.643>, fillcolor="#e581394d"] ;
462 -> 464 ;
465 [label=<mse = 39191.556<br/>samples = 15<br/>value = 5478.667>, fillcolor="#e5813954"] ;
461 -> 465 ;
466 [label=<MORWELL_MinT_85280 &le; 13.75<br/>mse = 42086.56<br/>samples = 25<br/>value = 5581.2>, fillcolor="#e5813958"] ;
460 -> 466 ;
467 [label=<mse = 27146.25<br/>samples = 10<br/>value = 5462.5>, fillcolor="#e5813953"] ;
466 -> 467 ;
468 [label=<mse = 36391.556<br/>samples = 15<br/>value = 5660.333>, fillcolor="#e581395b"] ;
466 -> 468 ;
469 [label=<mse = 75081.0<br/>samples = 10<br/>value = 5788.0>, fillcolor="#e581395f"] ;
459 -> 469 ;
470 [label=<mse = 244040.944<br/>samples = 14<br/>value = 6004.643>, fillcolor="#e5813967"] ;
458 -> 470 ;
471 [label=<Year &le; 2011.5<br/>mse = 93690.244<br/>samples = 4976<br/>value = 4899.701>, fillcolor="#e581393f"] ;
359 -> 471 ;
472 [label=<MELBOURNE-AIRPORT_MinT_86282 &le; 23.15<br/>mse = 83072.014<br/>samples = 2900<br/>value = 4983.9>, fillcolor="#e5813942"] ;
471 -> 472 ;
473 [label=<winter &le; 0.5<br/>mse = 74530.651<br/>samples = 2880<br/>value = 4976.536>, fillcolor="#e5813942"] ;
472 -> 473 ;
474 [label=<Hour_of_day &le; 1.25<br/>mse = 67831.88<br/>samples = 2672<br/>value = 4951.621>, fillcolor="#e5813941"] ;
473 -> 474 ;
475 [label=<MELBOURNE-AIRPORT_MinT_86282 &le; 16.55<br/>mse = 61846.017<br/>samples = 1336<br/>value = 4871.74>, fillcolor="#e581393e"] ;
474 -> 475 ;
476 [label=<MORWELL_MinT_85280 &le; 3.65<br/>mse = 54752.649<br/>samples = 1168<br/>value = 4842.282>, fillcolor="#e581393d"] ;
475 -> 476 ;
477 [label=<MORWELL_MaxT_85280 &le; 18.25<br/>mse = 57855.488<br/>samples = 82<br/>value = 5120.0>, fillcolor="#e5813947"] ;
476 -> 477 ;
478 [label=<CAPE-NELSON_MinT_90184 &le; 10.1<br/>mse = 46554.866<br/>samples = 34<br/>value = 5266.324>, fillcolor="#e581394c"] ;
477 -> 478 ;
479 [label=<MORWELL_MinT_85280 &le; 1.8<br/>mse = 28597.222<br/>samples = 24<br/>value = 5341.667>, fillcolor="#e581394f"] ;
478 -> 479 ;
480 [label=<mse = 14325.25<br/>samples = 10<br/>value = 5463.5>, fillcolor="#e5813953"] ;
479 -> 480 ;
481 [label=<mse = 20615.944<br/>samples = 14<br/>value = 5254.643>, fillcolor="#e581394c"] ;
479 -> 481 ;
482 [label=<mse = 43332.25<br/>samples = 10<br/>value = 5085.5>, fillcolor="#e5813946"] ;
478 -> 482 ;
483 [label=<Hour_of_day &le; 0.75<br/>mse = 39951.812<br/>samples = 48<br/>value = 5016.354>, fillcolor="#e5813943"] ;
477 -> 483 ;
484 [label=<MELBOURNE-AIRPORT_MinT_86282 &le; 5.9<br/>mse = 37986.806<br/>samples = 24<br/>value = 5098.333>, fillcolor="#e5813946"] ;
483 -> 484 ;
485 [label=<mse = 11700.25<br/>samples = 10<br/>value = 5173.5>, fillcolor="#e5813949"] ;
484 -> 485 ;
486 [label=<mse = 49844.515<br/>samples = 14<br/>value = 5044.643>, fillcolor="#e5813944"] ;
484 -> 486 ;
487 [label=<MORWELL_MaxT_85280 &le; 21.35<br/>mse = 28475.651<br/>samples = 24<br/>value = 4934.375>, fillcolor="#e5813940"] ;
483 -> 487 ;
488 [label=<mse = 20114.793<br/>samples = 13<br/>value = 4999.231>, fillcolor="#e5813942"] ;
487 -> 488 ;
489 [label=<mse = 27510.744<br/>samples = 11<br/>value = 4857.727>, fillcolor="#e581393d"] ;
487 -> 489 ;
490 [label=<Hour_of_day &le; 0.75<br/>mse = 48255.023<br/>samples = 1086<br/>value = 4821.312>, fillcolor="#e581393c"] ;
476 -> 490 ;
491 [label=<Year &le; 2009.5<br/>mse = 45598.492<br/>samples = 543<br/>value = 4888.195>, fillcolor="#e581393e"] ;
490 -> 491 ;
492 [label=<MELBOURNE-AIRPORT_MinT_86282 &le; 6.5<br/>mse = 41448.895<br/>samples = 184<br/>value = 4968.886>, fillcolor="#e5813941"] ;
491 -> 492 ;
493 [label=<mse = 64109.763<br/>samples = 13<br/>value = 5178.077>, fillcolor="#e5813949"] ;
492 -> 493 ;
494 [label=<CAPE-NELSON_MaxT_90184 &le; 20.65<br/>mse = 36146.368<br/>samples = 171<br/>value = 4952.982>, fillcolor="#e5813941"] ;
492 -> 494 ;
495 [label=<mse = 37401.851<br/>samples = 129<br/>value = 4927.132>, fillcolor="#e5813940"] ;
494 -> 495 ;
496 [label=<mse = 23933.617<br/>samples = 42<br/>value = 5032.381>, fillcolor="#e5813944"] ;
494 -> 496 ;
497 [label=<CAPE-NELSON_MinT_90184 &le; 11.05<br/>mse = 42677.818<br/>samples = 359<br/>value = 4846.838>, fillcolor="#e581393d"] ;
491 -> 497 ;
498 [label=<MILDURA-AIRPORT_MaxT_76031 &le; 22.15<br/>mse = 48109.869<br/>samples = 58<br/>value = 4949.31>, fillcolor="#e5813941"] ;
497 -> 498 ;
499 [label=<mse = 32651.556<br/>samples = 15<br/>value = 5098.667>, fillcolor="#e5813946"] ;
498 -> 499 ;
500 [label=<mse = 43006.165<br/>samples = 43<br/>value = 4897.209>, fillcolor="#e581393f"] ;
498 -> 500 ;
501 [label=<MELBOURNE-AIRPORT_MaxT_86282 &le; 28.85<br/>mse = 39217.878<br/>samples = 301<br/>value = 4827.093>, fillcolor="#e581393c"] ;
497 -> 501 ;
502 [label=<mse = 36961.337<br/>samples = 258<br/>value = 4806.647>, fillcolor="#e581393b"] ;
501 -> 502 ;
503 [label=<mse = 35199.946<br/>samples = 43<br/>value = 4949.767>, fillcolor="#e5813941"] ;
501 -> 503 ;
504 [label=<Year &le; 2009.5<br/>mse = 41964.867<br/>samples = 543<br/>value = 4754.429>, fillcolor="#e581393a"] ;
490 -> 504 ;
505 [label=<MELBOURNE-AIRPORT_MinT_86282 &le; 6.5<br/>mse = 37602.103<br/>samples = 184<br/>value = 4841.304>, fillcolor="#e581393d"] ;
504 -> 505 ;
506 [label=<mse = 54907.101<br/>samples = 13<br/>value = 5049.231>, fillcolor="#e5813944"] ;
505 -> 506 ;
507 [label=<CAPE-NELSON_MaxT_90184 &le; 20.65<br/>mse = 32749.899<br/>samples = 171<br/>value = 4825.497>, fillcolor="#e581393c"] ;
505 -> 507 ;
508 [label=<mse = 33557.944<br/>samples = 129<br/>value = 4798.295>, fillcolor="#e581393b"] ;
507 -> 508 ;
509 [label=<mse = 21014.569<br/>samples = 42<br/>value = 4909.048>, fillcolor="#e581393f"] ;
507 -> 509 ;
510 [label=<workdaySA &le; 0.5<br/>mse = 38350.06<br/>samples = 359<br/>value = 4709.903>, fillcolor="#e5813938"] ;
504 -> 510 ;
511 [label=<MILDURA-AIRPORT_MaxT_76031 &le; 33.05<br/>mse = 40241.949<br/>samples = 113<br/>value = 4632.124>, fillcolor="#e5813935"] ;
510 -> 511 ;
512 [label=<mse = 40063.145<br/>samples = 91<br/>value = 4605.769>, fillcolor="#e5813934"] ;
511 -> 512 ;
513 [label=<mse = 26224.845<br/>samples = 22<br/>value = 4741.136>, fillcolor="#e5813939"] ;
511 -> 513 ;
514 [label=<MORWELL_MinT_85280 &le; 16.25<br/>mse = 33425.721<br/>samples = 246<br/>value = 4745.63>, fillcolor="#e5813939"] ;
510 -> 514 ;
515 [label=<mse = 31503.725<br/>samples = 236<br/>value = 4735.911>, fillcolor="#e5813939"] ;
514 -> 515 ;
516 [label=<mse = 23945.0<br/>samples = 10<br/>value = 4975.0>, fillcolor="#e5813942"] ;
514 -> 516 ;
517 [label=<MILDURA-AIRPORT_MaxT_76031 &le; 38.25<br/>mse = 63182.426<br/>samples = 168<br/>value = 5076.548>, fillcolor="#e5813945"] ;
475 -> 517 ;
518 [label=<MELBOURNE-AIRPORT_MinT_86282 &le; 19.75<br/>mse = 43620.799<br/>samples = 126<br/>value = 4994.206>, fillcolor="#e5813942"] ;
517 -> 518 ;
519 [label=<Hour_of_day &le; 0.75<br/>mse = 38357.665<br/>samples = 94<br/>value = 4942.926>, fillcolor="#e5813940"] ;
518 -> 519 ;
520 [label=<CAPE-NELSON_MaxT_90184 &le; 23.45<br/>mse = 34655.229<br/>samples = 47<br/>value = 5013.511>, fillcolor="#e5813943"] ;
519 -> 520 ;
521 [label=<CAPE-NELSON_MinT_90184 &le; 15.0<br/>mse = 38503.076<br/>samples = 33<br/>value = 5052.121>, fillcolor="#e5813944"] ;
520 -> 521 ;
522 [label=<mse = 23805.556<br/>samples = 12<br/>value = 5128.333>, fillcolor="#e5813947"] ;
521 -> 522 ;
523 [label=<mse = 41686.054<br/>samples = 21<br/>value = 5008.571>, fillcolor="#e5813943"] ;
521 -> 523 ;
524 [label=<mse = 13788.393<br/>samples = 14<br/>value = 4922.5>, fillcolor="#e5813940"] ;
520 -> 524 ;
525 [label=<CAPE-NELSON_MaxT_90184 &le; 23.45<br/>mse = 32095.586<br/>samples = 47<br/>value = 4872.34>, fillcolor="#e581393e"] ;
519 -> 525 ;
526 [label=<MILDURA-AIRPORT_MaxT_76031 &le; 28.75<br/>mse = 33516.162<br/>samples = 33<br/>value = 4911.667>, fillcolor="#e581393f"] ;
525 -> 526 ;
527 [label=<mse = 32923.597<br/>samples = 14<br/>value = 4848.214>, fillcolor="#e581393d"] ;
526 -> 527 ;
528 [label=<mse = 28800.139<br/>samples = 19<br/>value = 4958.421>, fillcolor="#e5813941"] ;
526 -> 528 ;
529 [label=<mse = 16508.801<br/>samples = 14<br/>value = 4779.643>, fillcolor="#e581393a"] ;
525 -> 529 ;
530 [label=<Hour_of_day &le; 0.75<br/>mse = 28664.819<br/>samples = 32<br/>value = 5144.844>, fillcolor="#e5813948"] ;
518 -> 530 ;
531 [label=<mse = 22916.309<br/>samples = 16<br/>value = 5219.062>, fillcolor="#e581394a"] ;
530 -> 531 ;
532 [label=<mse = 23396.484<br/>samples = 16<br/>value = 5070.625>, fillcolor="#e5813945"] ;
530 -> 532 ;
533 [label=<CAPE-NELSON_MinT_90184 &le; 18.05<br/>mse = 40506.293<br/>samples = 42<br/>value = 5323.571>, fillcolor="#e581394e"] ;
517 -> 533 ;
534 [label=<Hour_of_day &le; 0.75<br/>mse = 14514.062<br/>samples = 32<br/>value = 5263.75>, fillcolor="#e581394c"] ;
533 -> 534 ;
535 [label=<mse = 9755.859<br/>samples = 16<br/>value = 5334.375>, fillcolor="#e581394f"] ;
534 -> 535 ;
536 [label=<mse = 9296.484<br/>samples = 16<br/>value = 5193.125>, fillcolor="#e581394a"] ;
534 -> 536 ;
537 [label=<mse = 75585.0<br/>samples = 10<br/>value = 5515.0>, fillcolor="#e5813955"] ;
533 -> 537 ;
538 [label=<Hour_of_day &le; 1.75<br/>mse = 61056.037<br/>samples = 1336<br/>value = 5031.501>, fillcolor="#e5813944"] ;
474 -> 538 ;
539 [label=<Year &le; 2009.5<br/>mse = 57326.487<br/>samples = 668<br/>value = 5114.244>, fillcolor="#e5813947"] ;
538 -> 539 ;
540 [label=<MELBOURNE-AIRPORT_MinT_86282 &le; 16.45<br/>mse = 47331.278<br/>samples = 223<br/>value = 5225.022>, fillcolor="#e581394b"] ;
539 -> 540 ;
541 [label=<MELBOURNE-AIRPORT_MinT_86282 &le; 6.75<br/>mse = 39744.092<br/>samples = 195<br/>value = 5193.564>, fillcolor="#e581394a"] ;
540 -> 541 ;
542 [label=<mse = 43649.622<br/>samples = 23<br/>value = 5387.826>, fillcolor="#e5813951"] ;
541 -> 542 ;
543 [label=<workdayTAS &le; 0.5<br/>mse = 33500.719<br/>samples = 172<br/>value = 5167.587>, fillcolor="#e5813949"] ;
541 -> 543 ;
544 [label=<shoulder &le; 0.5<br/>mse = 29832.564<br/>samples = 57<br/>value = 5084.123>, fillcolor="#e5813946"] ;
543 -> 544 ;
545 [label=<mse = 34602.604<br/>samples = 24<br/>value = 5008.75>, fillcolor="#e5813943"] ;
544 -> 545 ;
546 [label=<mse = 19226.905<br/>samples = 33<br/>value = 5138.939>, fillcolor="#e5813948"] ;
544 -> 546 ;
547 [label=<CAPE-NELSON_MaxT_90184 &le; 20.65<br/>mse = 30154.563<br/>samples = 115<br/>value = 5208.957>, fillcolor="#e581394a"] ;
543 -> 547 ;
548 [label=<mse = 32607.629<br/>samples = 82<br/>value = 5183.171>, fillcolor="#e5813949"] ;
547 -> 548 ;
549 [label=<mse = 18301.423<br/>samples = 33<br/>value = 5273.03>, fillcolor="#e581394c"] ;
547 -> 549 ;
550 [label=<MILDURA-AIRPORT_MaxT_76031 &le; 38.35<br/>mse = 45280.453<br/>samples = 28<br/>value = 5444.107>, fillcolor="#e5813953"] ;
540 -> 550 ;
551 [label=<mse = 19462.889<br/>samples = 15<br/>value = 5315.667>, fillcolor="#e581394e"] ;
550 -> 551 ;
552 [label=<mse = 34071.598<br/>samples = 13<br/>value = 5592.308>, fillcolor="#e5813958"] ;
550 -> 552 ;
553 [label=<MELBOURNE-AIRPORT_MinT_86282 &le; 18.0<br/>mse = 53103.837<br/>samples = 445<br/>value = 5058.73>, fillcolor="#e5813945"] ;
539 -> 553 ;
554 [label=<MORWELL_MinT_85280 &le; 3.65<br/>mse = 46910.707<br/>samples = 413<br/>value = 5037.651>, fillcolor="#e5813944"] ;
553 -> 554 ;
555 [label=<MORWELL_MaxT_85280 &le; 19.35<br/>mse = 45520.806<br/>samples = 30<br/>value = 5318.167>, fillcolor="#e581394e"] ;
554 -> 555 ;
556 [label=<mse = 40177.778<br/>samples = 18<br/>value = 5413.333>, fillcolor="#e5813952"] ;
555 -> 556 ;
557 [label=<mse = 19572.743<br/>samples = 12<br/>value = 5175.417>, fillcolor="#e5813949"] ;
555 -> 557 ;
558 [label=<workdaySA &le; 0.5<br/>mse = 40373.168<br/>samples = 383<br/>value = 5015.679>, fillcolor="#e5813943"] ;
554 -> 558 ;
559 [label=<MELBOURNE-AIRPORT_MinT_86282 &le; 16.5<br/>mse = 43719.406<br/>samples = 123<br/>value = 4935.325>, fillcolor="#e5813940"] ;
558 -> 559 ;
560 [label=<mse = 38766.25<br/>samples = 113<br/>value = 4912.08>, fillcolor="#e581393f"] ;
559 -> 560 ;
561 [label=<mse = 24586.0<br/>samples = 10<br/>value = 5198.0>, fillcolor="#e581394a"] ;
559 -> 561 ;
562 [label=<MORWELL_MinT_85280 &le; 15.05<br/>mse = 34290.598<br/>samples = 260<br/>value = 5053.692>, fillcolor="#e5813944"] ;
558 -> 562 ;
563 [label=<mse = 30115.971<br/>samples = 229<br/>value = 5035.917>, fillcolor="#e5813944"] ;
562 -> 563 ;
564 [label=<mse = 45553.226<br/>samples = 31<br/>value = 5185.0>, fillcolor="#e5813949"] ;
562 -> 564 ;
565 [label=<MILDURA-AIRPORT_MaxT_76031 &le; 32.55<br/>mse = 53287.671<br/>samples = 32<br/>value = 5330.781>, fillcolor="#e581394f"] ;
553 -> 565 ;
566 [label=<mse = 43217.09<br/>samples = 16<br/>value = 5215.312>, fillcolor="#e581394a"] ;
565 -> 566 ;
567 [label=<mse = 36692.188<br/>samples = 16<br/>value = 5446.25>, fillcolor="#e5813953"] ;
565 -> 567 ;
568 [label=<Year &le; 2009.5<br/>mse = 51092.693<br/>samples = 668<br/>value = 4948.757>, fillcolor="#e5813941"] ;
538 -> 568 ;
569 [label=<MELBOURNE-AIRPORT_MinT_86282 &le; 16.95<br/>mse = 43151.911<br/>samples = 223<br/>value = 5052.22>, fillcolor="#e5813944"] ;
568 -> 569 ;
570 [label=<MELBOURNE-AIRPORT_MinT_86282 &le; 6.75<br/>mse = 38827.524<br/>samples = 202<br/>value = 5030.446>, fillcolor="#e5813944"] ;
569 -> 570 ;
571 [label=<mse = 43713.516<br/>samples = 23<br/>value = 5248.696>, fillcolor="#e581394c"] ;
570 -> 571 ;
572 [label=<workdayVIC &le; 0.5<br/>mse = 31292.833<br/>samples = 179<br/>value = 5002.402>, fillcolor="#e5813943"] ;
570 -> 572 ;
573 [label=<shoulder &le; 0.5<br/>mse = 25409.299<br/>samples = 61<br/>value = 4918.525>, fillcolor="#e5813940"] ;
572 -> 573 ;
574 [label=<mse = 28661.76<br/>samples = 25<br/>value = 4843.2>, fillcolor="#e581393d"] ;
573 -> 574 ;
575 [label=<mse = 16474.306<br/>samples = 36<br/>value = 4970.833>, fillcolor="#e5813941"] ;
573 -> 575 ;
576 [label=<shoulder &le; 0.5<br/>mse = 28817.215<br/>samples = 118<br/>value = 5045.763>, fillcolor="#e5813944"] ;
572 -> 576 ;
577 [label=<mse = 25497.872<br/>samples = 47<br/>value = 5000.0>, fillcolor="#e5813942"] ;
576 -> 577 ;
578 [label=<mse = 28710.504<br/>samples = 71<br/>value = 5076.056>, fillcolor="#e5813945"] ;
576 -> 578 ;
579 [label=<mse = 36319.841<br/>samples = 21<br/>value = 5261.667>, fillcolor="#e581394c"] ;
569 -> 579 ;
580 [label=<MORWELL_MinT_85280 &le; 3.65<br/>mse = 47019.61<br/>samples = 445<br/>value = 4896.91>, fillcolor="#e581393f"] ;
568 -> 580 ;
581 [label=<MORWELL_MaxT_85280 &le; 19.95<br/>mse = 44176.556<br/>samples = 30<br/>value = 5153.667>, fillcolor="#e5813948"] ;
580 -> 581 ;
582 [label=<mse = 35758.033<br/>samples = 19<br/>value = 5246.579>, fillcolor="#e581394b"] ;
581 -> 582 ;
583 [label=<mse = 18051.24<br/>samples = 11<br/>value = 4993.182>, fillcolor="#e5813942"] ;
581 -> 583 ;
584 [label=<MELBOURNE-AIRPORT_MinT_86282 &le; 16.55<br/>mse = 42115.047<br/>samples = 415<br/>value = 4878.349>, fillcolor="#e581393e"] ;
580 -> 584 ;
585 [label=<workdaySA &le; 0.5<br/>mse = 35832.937<br/>samples = 359<br/>value = 4850.042>, fillcolor="#e581393d"] ;
584 -> 585 ;
586 [label=<MELBOURNE-AIRPORT_MinT_86282 &le; 7.15<br/>mse = 34201.527<br/>samples = 113<br/>value = 4746.062>, fillcolor="#e5813939"] ;
585 -> 586 ;
587 [label=<mse = 10712.25<br/>samples = 10<br/>value = 4904.5>, fillcolor="#e581393f"] ;
586 -> 587 ;
588 [label=<mse = 33808.276<br/>samples = 103<br/>value = 4730.68>, fillcolor="#e5813939"] ;
586 -> 588 ;
589 [label=<MORWELL_MinT_85280 &le; 15.25<br/>mse = 29334.612<br/>samples = 246<br/>value = 4897.805>, fillcolor="#e581393f"] ;
585 -> 589 ;
590 [label=<mse = 27970.493<br/>samples = 231<br/>value = 4886.991>, fillcolor="#e581393e"] ;
589 -> 590 ;
591 [label=<mse = 20809.556<br/>samples = 15<br/>value = 5064.333>, fillcolor="#e5813945"] ;
589 -> 591 ;
592 [label=<MILDURA-AIRPORT_MaxT_76031 &le; 37.1<br/>mse = 44318.718<br/>samples = 56<br/>value = 5059.821>, fillcolor="#e5813945"] ;
584 -> 592 ;
593 [label=<MELBOURNE-AIRPORT_MinT_86282 &le; 18.35<br/>mse = 34047.728<br/>samples = 45<br/>value = 5010.222>, fillcolor="#e5813943"] ;
592 -> 593 ;
594 [label=<mse = 26076.96<br/>samples = 25<br/>value = 4940.2>, fillcolor="#e5813940"] ;
593 -> 594 ;
595 [label=<mse = 30221.188<br/>samples = 20<br/>value = 5097.75>, fillcolor="#e5813946"] ;
593 -> 595 ;
596 [label=<mse = 35101.653<br/>samples = 11<br/>value = 5262.727>, fillcolor="#e581394c"] ;
592 -> 596 ;
597 [label=<MELBOURNE-AIRPORT_MinT_86282 &le; 7.45<br/>mse = 50161.709<br/>samples = 208<br/>value = 5296.611>, fillcolor="#e581394d"] ;
473 -> 597 ;
598 [label=<CAPE-NELSON_MinT_90184 &le; 7.95<br/>mse = 35628.448<br/>samples = 100<br/>value = 5411.95>, fillcolor="#e5813952"] ;
597 -> 598 ;
599 [label=<Hour_of_day &le; 1.25<br/>mse = 16879.688<br/>samples = 32<br/>value = 5556.25>, fillcolor="#e5813957"] ;
598 -> 599 ;
600 [label=<mse = 12667.188<br/>samples = 16<br/>value = 5498.75>, fillcolor="#e5813955"] ;
599 -> 600 ;
601 [label=<mse = 14479.688<br/>samples = 16<br/>value = 5613.75>, fillcolor="#e5813959"] ;
599 -> 601 ;
602 [label=<MORWELL_MinT_85280 &le; 4.65<br/>mse = 30041.366<br/>samples = 68<br/>value = 5344.044>, fillcolor="#e581394f"] ;
598 -> 602 ;
603 [label=<MILDURA-AIRPORT_MaxT_76031 &le; 20.75<br/>mse = 24272.569<br/>samples = 56<br/>value = 5306.696>, fillcolor="#e581394e"] ;
602 -> 603 ;
604 [label=<Hour_of_day &le; 1.25<br/>mse = 18454.688<br/>samples = 32<br/>value = 5372.5>, fillcolor="#e5813950"] ;
603 -> 604 ;
605 [label=<mse = 16346.484<br/>samples = 16<br/>value = 5303.125>, fillcolor="#e581394e"] ;
604 -> 605 ;
606 [label=<mse = 10937.109<br/>samples = 16<br/>value = 5441.875>, fillcolor="#e5813953"] ;
604 -> 606 ;
607 [label=<Hour_of_day &le; 1.25<br/>mse = 18558.29<br/>samples = 24<br/>value = 5218.958>, fillcolor="#e581394a"] ;
603 -> 607 ;
608 [label=<mse = 18220.139<br/>samples = 12<br/>value = 5164.167>, fillcolor="#e5813948"] ;
607 -> 608 ;
609 [label=<mse = 12892.188<br/>samples = 12<br/>value = 5273.75>, fillcolor="#e581394c"] ;
607 -> 609 ;
610 [label=<mse = 20076.389<br/>samples = 12<br/>value = 5518.333>, fillcolor="#e5813955"] ;
602 -> 610 ;
611 [label=<CAPE-NELSON_MaxT_90184 &le; 14.8<br/>mse = 39895.336<br/>samples = 108<br/>value = 5189.815>, fillcolor="#e5813949"] ;
597 -> 611 ;
612 [label=<MILDURA-AIRPORT_MaxT_76031 &le; 20.3<br/>mse = 34233.29<br/>samples = 24<br/>value = 5012.292>, fillcolor="#e5813943"] ;
611 -> 612 ;
613 [label=<mse = 16626.389<br/>samples = 12<br/>value = 5126.667>, fillcolor="#e5813947"] ;
612 -> 613 ;
614 [label=<mse = 25676.91<br/>samples = 12<br/>value = 4897.917>, fillcolor="#e581393f"] ;
612 -> 614 ;
615 [label=<CAPE-NELSON_MinT_90184 &le; 11.85<br/>mse = 29936.32<br/>samples = 84<br/>value = 5240.536>, fillcolor="#e581394b"] ;
611 -> 615 ;
616 [label=<Hour_of_day &le; 1.25<br/>mse = 21411.694<br/>samples = 68<br/>value = 5276.838>, fillcolor="#e581394d"] ;
615 -> 616 ;
617 [label=<Hour_of_day &le; 0.75<br/>mse = 17516.176<br/>samples = 34<br/>value = 5210.0>, fillcolor="#e581394a"] ;
616 -> 617 ;
618 [label=<mse = 11233.91<br/>samples = 17<br/>value = 5293.824>, fillcolor="#e581394d"] ;
617 -> 618 ;
619 [label=<mse = 9745.675<br/>samples = 17<br/>value = 5126.176>, fillcolor="#e5813947"] ;
617 -> 619 ;
620 [label=<Hour_of_day &le; 1.75<br/>mse = 16372.513<br/>samples = 34<br/>value = 5343.676>, fillcolor="#e581394f"] ;
616 -> 620 ;
621 [label=<mse = 8856.574<br/>samples = 17<br/>value = 5429.118>, fillcolor="#e5813952"] ;
620 -> 621 ;
622 [label=<mse = 9288.062<br/>samples = 17<br/>value = 5258.235>, fillcolor="#e581394c"] ;
620 -> 622 ;
623 [label=<mse = 36760.938<br/>samples = 16<br/>value = 5086.25>, fillcolor="#e5813946"] ;
615 -> 623 ;
624 [label=<mse = 180878.188<br/>samples = 20<br/>value = 6044.25>, fillcolor="#e5813969"] ;
472 -> 624 ;
625 [label=<Hour_of_day &le; 0.75<br/>mse = 84785.145<br/>samples = 2076<br/>value = 4782.081>, fillcolor="#e581393b"] ;
471 -> 625 ;
626 [label=<MORWELL_MinT_85280 &le; 3.55<br/>mse = 71083.024<br/>samples = 519<br/>value = 4943.266>, fillcolor="#e5813940"] ;
625 -> 626 ;
627 [label=<MILDURA-AIRPORT_MaxT_76031 &le; 23.3<br/>mse = 45545.087<br/>samples = 33<br/>value = 5294.394>, fillcolor="#e581394d"] ;
626 -> 627 ;
628 [label=<mse = 25205.688<br/>samples = 20<br/>value = 5405.75>, fillcolor="#e5813951"] ;
627 -> 628 ;
629 [label=<mse = 28409.763<br/>samples = 13<br/>value = 5123.077>, fillcolor="#e5813947"] ;
627 -> 629 ;
630 [label=<MELBOURNE-AIRPORT_MinT_86282 &le; 17.75<br/>mse = 63877.034<br/>samples = 486<br/>value = 4919.424>, fillcolor="#e5813940"] ;
626 -> 630 ;
631 [label=<CAPE-NELSON_MinT_90184 &le; 10.55<br/>mse = 53666.266<br/>samples = 451<br/>value = 4895.987>, fillcolor="#e581393f"] ;
630 -> 631 ;
632 [label=<MORWELL_MinT_85280 &le; 7.25<br/>mse = 43091.94<br/>samples = 99<br/>value = 5044.141>, fillcolor="#e5813944"] ;
631 -> 632 ;
633 [label=<MILDURA-AIRPORT_MaxT_76031 &le; 27.2<br/>mse = 31102.457<br/>samples = 49<br/>value = 5105.306>, fillcolor="#e5813946"] ;
632 -> 633 ;
634 [label=<CAPE-NELSON_MinT_90184 &le; 8.95<br/>mse = 28200.97<br/>samples = 38<br/>value = 5137.632>, fillcolor="#e5813948"] ;
633 -> 634 ;
635 [label=<mse = 31825.779<br/>samples = 17<br/>value = 5193.529>, fillcolor="#e581394a"] ;
634 -> 635 ;
636 [label=<mse = 20689.569<br/>samples = 21<br/>value = 5092.381>, fillcolor="#e5813946"] ;
634 -> 636 ;
637 [label=<mse = 25045.868<br/>samples = 11<br/>value = 4993.636>, fillcolor="#e5813942"] ;
633 -> 637 ;
638 [label=<MORWELL_MaxT_85280 &le; 19.8<br/>mse = 47582.36<br/>samples = 50<br/>value = 4984.2>, fillcolor="#e5813942"] ;
632 -> 638 ;
639 [label=<CAPE-NELSON_MaxT_90184 &le; 15.25<br/>mse = 42454.086<br/>samples = 38<br/>value = 5031.579>, fillcolor="#e5813944"] ;
638 -> 639 ;
640 [label=<mse = 23726.085<br/>samples = 22<br/>value = 4949.773>, fillcolor="#e5813941"] ;
639 -> 640 ;
641 [label=<mse = 46350.684<br/>samples = 16<br/>value = 5144.062>, fillcolor="#e5813948"] ;
639 -> 641 ;
642 [label=<mse = 34203.472<br/>samples = 12<br/>value = 4834.167>, fillcolor="#e581393c"] ;
638 -> 642 ;
643 [label=<CAPE-NELSON_MinT_90184 &le; 16.25<br/>mse = 48730.643<br/>samples = 352<br/>value = 4854.318>, fillcolor="#e581393d"] ;
631 -> 643 ;
644 [label=<MELBOURNE-AIRPORT_MinT_86282 &le; 9.75<br/>mse = 47404.181<br/>samples = 315<br/>value = 4835.905>, fillcolor="#e581393d"] ;
643 -> 644 ;
645 [label=<summer &le; 0.5<br/>mse = 54985.579<br/>samples = 87<br/>value = 4928.563>, fillcolor="#e5813940"] ;
644 -> 645 ;
646 [label=<workdayTAS &le; 0.5<br/>mse = 58183.49<br/>samples = 70<br/>value = 4961.714>, fillcolor="#e5813941"] ;
645 -> 646 ;
647 [label=<MORWELL_MinT_85280 &le; 9.0<br/>mse = 68893.21<br/>samples = 27<br/>value = 4881.111>, fillcolor="#e581393e"] ;
646 -> 647 ;
648 [label=<mse = 54467.474<br/>samples = 17<br/>value = 4928.235>, fillcolor="#e5813940"] ;
647 -> 648 ;
649 [label=<mse = 83224.0<br/>samples = 10<br/>value = 4801.0>, fillcolor="#e581393b"] ;
647 -> 649 ;
650 [label=<MORWELL_MaxT_85280 &le; 20.85<br/>mse = 44817.847<br/>samples = 43<br/>value = 5012.326>, fillcolor="#e5813943"] ;
646 -> 650 ;
651 [label=<mse = 48296.222<br/>samples = 30<br/>value = 5060.667>, fillcolor="#e5813945"] ;
650 -> 651 ;
652 [label=<mse = 18953.254<br/>samples = 13<br/>value = 4900.769>, fillcolor="#e581393f"] ;
650 -> 652 ;
653 [label=<mse = 18658.997<br/>samples = 17<br/>value = 4792.059>, fillcolor="#e581393b"] ;
645 -> 653 ;
654 [label=<workdaySA &le; 0.5<br/>mse = 39985.116<br/>samples = 228<br/>value = 4800.548>, fillcolor="#e581393b"] ;
644 -> 654 ;
655 [label=<CAPE-NELSON_MinT_90184 &le; 12.75<br/>mse = 31003.23<br/>samples = 77<br/>value = 4724.416>, fillcolor="#e5813938"] ;
654 -> 655 ;
656 [label=<mse = 31070.408<br/>samples = 14<br/>value = 4837.857>, fillcolor="#e581393d"] ;
655 -> 656 ;
657 [label=<MELBOURNE-AIRPORT_MinT_86282 &le; 10.95<br/>mse = 27493.021<br/>samples = 63<br/>value = 4699.206>, fillcolor="#e5813938"] ;
655 -> 657 ;
658 [label=<mse = 38633.884<br/>samples = 11<br/>value = 4570.455>, fillcolor="#e5813933"] ;
657 -> 658 ;
659 [label=<mse = 20887.824<br/>samples = 52<br/>value = 4726.442>, fillcolor="#e5813939"] ;
657 -> 659 ;
660 [label=<MILDURA-AIRPORT_MaxT_76031 &le; 37.25<br/>mse = 40102.419<br/>samples = 151<br/>value = 4839.371>, fillcolor="#e581393d"] ;
654 -> 660 ;
661 [label=<MORWELL_MinT_85280 &le; 14.85<br/>mse = 38850.063<br/>samples = 132<br/>value = 4815.833>, fillcolor="#e581393c"] ;
660 -> 661 ;
662 [label=<mse = 36604.238<br/>samples = 121<br/>value = 4801.901>, fillcolor="#e581393b"] ;
661 -> 662 ;
663 [label=<mse = 37930.992<br/>samples = 11<br/>value = 4969.091>, fillcolor="#e5813941"] ;
661 -> 663 ;
664 [label=<mse = 18213.989<br/>samples = 19<br/>value = 5002.895>, fillcolor="#e5813943"] ;
660 -> 664 ;
665 [label=<MORWELL_MaxT_85280 &le; 27.75<br/>mse = 32562.345<br/>samples = 37<br/>value = 5011.081>, fillcolor="#e5813943"] ;
643 -> 665 ;
666 [label=<mse = 17488.43<br/>samples = 11<br/>value = 4909.545>, fillcolor="#e581393f"] ;
665 -> 666 ;
667 [label=<MORWELL_MinT_85280 &le; 15.65<br/>mse = 32732.729<br/>samples = 26<br/>value = 5054.038>, fillcolor="#e5813944"] ;
665 -> 667 ;
668 [label=<mse = 20706.076<br/>samples = 12<br/>value = 5125.417>, fillcolor="#e5813947"] ;
667 -> 668 ;
669 [label=<mse = 34931.122<br/>samples = 14<br/>value = 4992.857>, fillcolor="#e5813942"] ;
667 -> 669 ;
670 [label=<CAPE-NELSON_MinT_90184 &le; 16.3<br/>mse = 97165.102<br/>samples = 35<br/>value = 5221.429>, fillcolor="#e581394b"] ;
630 -> 670 ;
671 [label=<mse = 101648.225<br/>samples = 13<br/>value = 5048.077>, fillcolor="#e5813944"] ;
670 -> 671 ;
672 [label=<mse = 66265.754<br/>samples = 22<br/>value = 5323.864>, fillcolor="#e581394e"] ;
670 -> 672 ;
673 [label=<CAPE-NELSON_MinT_90184 &le; 16.15<br/>mse = 77805.587<br/>samples = 1557<br/>value = 4728.353>, fillcolor="#e5813939"] ;
625 -> 673 ;
674 [label=<MORWELL_MinT_85280 &le; 3.65<br/>mse = 70464.264<br/>samples = 1371<br/>value = 4695.263>, fillcolor="#e5813937"] ;
673 -> 674 ;
675 [label=<MILDURA-AIRPORT_MaxT_76031 &le; 23.3<br/>mse = 74981.827<br/>samples = 102<br/>value = 5028.676>, fillcolor="#e5813944"] ;
674 -> 675 ;
676 [label=<Year &le; 2012.5<br/>mse = 52570.583<br/>samples = 60<br/>value = 5164.5>, fillcolor="#e5813948"] ;
675 -> 676 ;
677 [label=<CAPE-NELSON_MinT_90184 &le; 9.0<br/>mse = 23750.25<br/>samples = 30<br/>value = 5321.5>, fillcolor="#e581394e"] ;
676 -> 677 ;
678 [label=<mse = 16038.889<br/>samples = 12<br/>value = 5458.333>, fillcolor="#e5813953"] ;
677 -> 678 ;
679 [label=<mse = 8087.423<br/>samples = 18<br/>value = 5230.278>, fillcolor="#e581394b"] ;
677 -> 679 ;
680 [label=<Hour_of_day &le; 1.75<br/>mse = 32092.917<br/>samples = 30<br/>value = 5007.5>, fillcolor="#e5813943"] ;
676 -> 680 ;
681 [label=<mse = 25096.0<br/>samples = 20<br/>value = 5067.0>, fillcolor="#e5813945"] ;
680 -> 681 ;
682 [label=<mse = 24845.25<br/>samples = 10<br/>value = 4888.5>, fillcolor="#e581393e"] ;
680 -> 682 ;
683 [label=<CAPE-NELSON_MaxT_90184 &le; 24.05<br/>mse = 42994.515<br/>samples = 42<br/>value = 4834.643>, fillcolor="#e581393c"] ;
675 -> 683 ;
684 [label=<Year &le; 2012.5<br/>mse = 19291.25<br/>samples = 30<br/>value = 4907.5>, fillcolor="#e581393f"] ;
683 -> 684 ;
685 [label=<mse = 10541.556<br/>samples = 15<br/>value = 4983.667>, fillcolor="#e5813942"] ;
684 -> 685 ;
686 [label=<mse = 16438.222<br/>samples = 15<br/>value = 4831.333>, fillcolor="#e581393c"] ;
684 -> 686 ;
687 [label=<mse = 55806.25<br/>samples = 12<br/>value = 4652.5>, fillcolor="#e5813936"] ;
683 -> 687 ;
688 [label=<Year &le; 2012.5<br/>mse = 60447.718<br/>samples = 1269<br/>value = 4668.463>, fillcolor="#e5813936"] ;
674 -> 688 ;
689 [label=<CAPE-NELSON_MinT_90184 &le; 9.55<br/>mse = 52536.866<br/>samples = 600<br/>value = 4752.867>, fillcolor="#e5813939"] ;
688 -> 689 ;
690 [label=<MILDURA-AIRPORT_MaxT_76031 &le; 27.4<br/>mse = 34900.294<br/>samples = 84<br/>value = 4925.06>, fillcolor="#e5813940"] ;
689 -> 690 ;
691 [label=<CAPE-NELSON_MinT_90184 &le; 8.95<br/>mse = 26646.243<br/>samples = 60<br/>value = 4980.917>, fillcolor="#e5813942"] ;
690 -> 691 ;
692 [label=<MELBOURNE-AIRPORT_MinT_86282 &le; 7.45<br/>mse = 22342.248<br/>samples = 42<br/>value = 5031.548>, fillcolor="#e5813944"] ;
691 -> 692 ;
693 [label=<mse = 18185.571<br/>samples = 18<br/>value = 5096.389>, fillcolor="#e5813946"] ;
692 -> 693 ;
694 [label=<MORWELL_MinT_85280 &le; 8.2<br/>mse = 19941.493<br/>samples = 24<br/>value = 4982.917>, fillcolor="#e5813942"] ;
692 -> 694 ;
695 [label=<mse = 14490.972<br/>samples = 12<br/>value = 4919.167>, fillcolor="#e5813940"] ;
694 -> 695 ;
696 [label=<mse = 17263.889<br/>samples = 12<br/>value = 5046.667>, fillcolor="#e5813944"] ;
694 -> 696 ;
697 [label=<mse = 16750.617<br/>samples = 18<br/>value = 4862.778>, fillcolor="#e581393d"] ;
691 -> 697 ;
698 [label=<MELBOURNE-AIRPORT_MinT_86282 &le; 6.1<br/>mse = 28235.243<br/>samples = 24<br/>value = 4785.417>, fillcolor="#e581393b"] ;
690 -> 698 ;
699 [label=<mse = 14424.306<br/>samples = 12<br/>value = 4819.167>, fillcolor="#e581393c"] ;
698 -> 699 ;
700 [label=<mse = 39768.056<br/>samples = 12<br/>value = 4751.667>, fillcolor="#e5813939"] ;
698 -> 700 ;
701 [label=<workdayTAS &le; 0.5<br/>mse = 49795.37<br/>samples = 516<br/>value = 4724.835>, fillcolor="#e5813938"] ;
689 -> 701 ;
702 [label=<MELBOURNE-AIRPORT_MaxT_86282 &le; 17.7<br/>mse = 46571.592<br/>samples = 165<br/>value = 4630.273>, fillcolor="#e5813935"] ;
701 -> 702 ;
703 [label=<mse = 53298.753<br/>samples = 21<br/>value = 4808.095>, fillcolor="#e581393b"] ;
702 -> 703 ;
704 [label=<MORWELL_MinT_85280 &le; 16.0<br/>mse = 40306.683<br/>samples = 144<br/>value = 4604.34>, fillcolor="#e5813934"] ;
702 -> 704 ;
705 [label=<summer &le; 0.5<br/>mse = 36445.511<br/>samples = 129<br/>value = 4583.023>, fillcolor="#e5813933"] ;
704 -> 705 ;
706 [label=<mse = 23077.367<br/>samples = 84<br/>value = 4644.881>, fillcolor="#e5813936"] ;
705 -> 706 ;
707 [label=<mse = 40924.025<br/>samples = 45<br/>value = 4467.556>, fillcolor="#e581392f"] ;
705 -> 707 ;
708 [label=<mse = 35996.222<br/>samples = 15<br/>value = 4787.667>, fillcolor="#e581393b"] ;
704 -> 708 ;
709 [label=<CAPE-NELSON_MaxT_90184 &le; 19.25<br/>mse = 45131.259<br/>samples = 351<br/>value = 4769.288>, fillcolor="#e581393a"] ;
701 -> 709 ;
710 [label=<MORWELL_MaxT_85280 &le; 26.1<br/>mse = 43110.875<br/>samples = 213<br/>value = 4723.615>, fillcolor="#e5813938"] ;
709 -> 710 ;
711 [label=<MILDURA-AIRPORT_MaxT_76031 &le; 21.0<br/>mse = 36808.77<br/>samples = 198<br/>value = 4745.758>, fillcolor="#e5813939"] ;
710 -> 711 ;
712 [label=<mse = 47842.222<br/>samples = 15<br/>value = 4988.333>, fillcolor="#e5813942"] ;
711 -> 712 ;
713 [label=<mse = 30685.848<br/>samples = 183<br/>value = 4725.874>, fillcolor="#e5813938"] ;
711 -> 713 ;
714 [label=<mse = 34398.222<br/>samples = 15<br/>value = 4431.333>, fillcolor="#e581392e"] ;
710 -> 714 ;
715 [label=<MELBOURNE-AIRPORT_MinT_86282 &le; 16.25<br/>mse = 40060.46<br/>samples = 138<br/>value = 4839.783>, fillcolor="#e581393d"] ;
709 -> 715 ;
716 [label=<Hour_of_day &le; 1.25<br/>mse = 28035.349<br/>samples = 126<br/>value = 4809.127>, fillcolor="#e581393c"] ;
715 -> 716 ;
717 [label=<mse = 23952.962<br/>samples = 42<br/>value = 4715.119>, fillcolor="#e5813938"] ;
716 -> 717 ;
718 [label=<mse = 23448.423<br/>samples = 84<br/>value = 4856.131>, fillcolor="#e581393d"] ;
716 -> 718 ;
719 [label=<mse = 52847.222<br/>samples = 12<br/>value = 5161.667>, fillcolor="#e5813948"] ;
715 -> 719 ;
720 [label=<Hour_of_day &le; 1.75<br/>mse = 55423.295<br/>samples = 669<br/>value = 4592.765>, fillcolor="#e5813934"] ;
688 -> 720 ;
721 [label=<winter &le; 0.5<br/>mse = 51009.039<br/>samples = 446<br/>value = 4646.435>, fillcolor="#e5813936"] ;
720 -> 721 ;
722 [label=<MELBOURNE-AIRPORT_MinT_86282 &le; 7.45<br/>mse = 48633.902<br/>samples = 420<br/>value = 4630.75>, fillcolor="#e5813935"] ;
721 -> 722 ;
723 [label=<Hour_of_day &le; 1.25<br/>mse = 35932.715<br/>samples = 64<br/>value = 4775.312>, fillcolor="#e581393a"] ;
722 -> 723 ;
724 [label=<CAPE-NELSON_MinT_90184 &le; 10.35<br/>mse = 31437.402<br/>samples = 32<br/>value = 4837.812>, fillcolor="#e581393d"] ;
723 -> 724 ;
725 [label=<mse = 25857.099<br/>samples = 18<br/>value = 4893.889>, fillcolor="#e581393f"] ;
724 -> 725 ;
726 [label=<mse = 29370.918<br/>samples = 14<br/>value = 4765.714>, fillcolor="#e581393a"] ;
724 -> 726 ;
727 [label=<MELBOURNE-AIRPORT_MinT_86282 &le; 6.35<br/>mse = 32615.527<br/>samples = 32<br/>value = 4712.812>, fillcolor="#e5813938"] ;
723 -> 727 ;
728 [label=<mse = 30592.244<br/>samples = 19<br/>value = 4763.421>, fillcolor="#e581393a"] ;
727 -> 728 ;
729 [label=<mse = 26358.284<br/>samples = 13<br/>value = 4638.846>, fillcolor="#e5813935"] ;
727 -> 729 ;
730 [label=<workdaySA &le; 0.5<br/>mse = 46484.845<br/>samples = 356<br/>value = 4604.761>, fillcolor="#e5813934"] ;
722 -> 730 ;
731 [label=<MELBOURNE-AIRPORT_MinT_86282 &le; 8.15<br/>mse = 33933.498<br/>samples = 118<br/>value = 4501.653>, fillcolor="#e5813930"] ;
730 -> 731 ;
732 [label=<mse = 48092.25<br/>samples = 10<br/>value = 4714.5>, fillcolor="#e5813938"] ;
731 -> 732 ;
733 [label=<mse = 28039.275<br/>samples = 108<br/>value = 4481.944>, fillcolor="#e5813930"] ;
731 -> 733 ;
734 [label=<MORWELL_MinT_85280 &le; 14.85<br/>mse = 44823.381<br/>samples = 238<br/>value = 4655.882>, fillcolor="#e5813936"] ;
730 -> 734 ;
735 [label=<mse = 36793.439<br/>samples = 216<br/>value = 4630.88>, fillcolor="#e5813935"] ;
734 -> 735 ;
736 [label=<mse = 57264.05<br/>samples = 22<br/>value = 4901.364>, fillcolor="#e581393f"] ;
734 -> 736 ;
737 [label=<MELBOURNE-AIRPORT_MinT_86282 &le; 8.6<br/>mse = 21204.771<br/>samples = 26<br/>value = 4899.808>, fillcolor="#e581393f"] ;
721 -> 737 ;
738 [label=<mse = 26010.25<br/>samples = 10<br/>value = 4991.5>, fillcolor="#e5813942"] ;
737 -> 738 ;
739 [label=<mse = 9662.5<br/>samples = 16<br/>value = 4842.5>, fillcolor="#e581393d"] ;
737 -> 739 ;
740 [label=<workdayTAS &le; 0.5<br/>mse = 46969.213<br/>samples = 223<br/>value = 4485.426>, fillcolor="#e5813930"] ;
720 -> 740 ;
741 [label=<MELBOURNE-AIRPORT_MinT_86282 &le; 8.05<br/>mse = 41004.351<br/>samples = 74<br/>value = 4399.797>, fillcolor="#e581392d"] ;
740 -> 741 ;
742 [label=<mse = 33444.889<br/>samples = 15<br/>value = 4548.667>, fillcolor="#e5813932"] ;
741 -> 742 ;
743 [label=<MELBOURNE-AIRPORT_MaxT_86282 &le; 27.4<br/>mse = 35859.336<br/>samples = 59<br/>value = 4361.949>, fillcolor="#e581392b"] ;
741 -> 743 ;
744 [label=<MELBOURNE-AIRPORT_MaxT_86282 &le; 20.75<br/>mse = 30393.128<br/>samples = 49<br/>value = 4386.122>, fillcolor="#e581392c"] ;
743 -> 744 ;
745 [label=<mse = 38793.027<br/>samples = 22<br/>value = 4308.864>, fillcolor="#e5813929"] ;
744 -> 745 ;
746 [label=<mse = 14722.291<br/>samples = 27<br/>value = 4449.074>, fillcolor="#e581392e"] ;
744 -> 746 ;
747 [label=<mse = 45750.25<br/>samples = 10<br/>value = 4243.5>, fillcolor="#e5813927"] ;
743 -> 747 ;
748 [label=<CAPE-NELSON_MinT_90184 &le; 14.7<br/>mse = 44481.548<br/>samples = 149<br/>value = 4527.953>, fillcolor="#e5813931"] ;
740 -> 748 ;
749 [label=<summer &le; 0.5<br/>mse = 37489.237<br/>samples = 130<br/>value = 4500.615>, fillcolor="#e5813930"] ;
748 -> 749 ;
750 [label=<MELBOURNE-AIRPORT_MinT_86282 &le; 9.95<br/>mse = 32914.98<br/>samples = 97<br/>value = 4532.68>, fillcolor="#e5813931"] ;
749 -> 750 ;
751 [label=<mse = 31987.58<br/>samples = 45<br/>value = 4599.556>, fillcolor="#e5813934"] ;
750 -> 751 ;
752 [label=<mse = 26498.04<br/>samples = 52<br/>value = 4474.808>, fillcolor="#e581392f"] ;
750 -> 752 ;
753 [label=<MORWELL_MaxT_85280 &le; 25.85<br/>mse = 39029.201<br/>samples = 33<br/>value = 4406.364>, fillcolor="#e581392d"] ;
749 -> 753 ;
754 [label=<mse = 19123.583<br/>samples = 21<br/>value = 4296.19>, fillcolor="#e5813929"] ;
753 -> 754 ;
755 [label=<mse = 15449.306<br/>samples = 12<br/>value = 4599.167>, fillcolor="#e5813934"] ;
753 -> 755 ;
756 [label=<mse = 52223.684<br/>samples = 19<br/>value = 4715.0>, fillcolor="#e5813938"] ;
748 -> 756 ;
757 [label=<MELBOURNE-AIRPORT_MinT_86282 &le; 17.75<br/>mse = 64357.536<br/>samples = 186<br/>value = 4972.258>, fillcolor="#e5813941"] ;
673 -> 757 ;
758 [label=<Year &le; 2012.5<br/>mse = 42900.332<br/>samples = 120<br/>value = 4876.542>, fillcolor="#e581393e"] ;
757 -> 758 ;
759 [label=<MORWELL_MaxT_85280 &le; 30.05<br/>mse = 40173.472<br/>samples = 60<br/>value = 4965.833>, fillcolor="#e5813941"] ;
758 -> 759 ;
760 [label=<Hour_of_day &le; 1.25<br/>mse = 22792.25<br/>samples = 30<br/>value = 4874.5>, fillcolor="#e581393e"] ;
759 -> 760 ;
761 [label=<mse = 10930.25<br/>samples = 10<br/>value = 4771.5>, fillcolor="#e581393a"] ;
760 -> 761 ;
762 [label=<mse = 20766.5<br/>samples = 20<br/>value = 4926.0>, fillcolor="#e5813940"] ;
760 -> 762 ;
763 [label=<MELBOURNE-AIRPORT_MaxT_86282 &le; 34.95<br/>mse = 40871.139<br/>samples = 30<br/>value = 5057.167>, fillcolor="#e5813945"] ;
759 -> 763 ;
764 [label=<mse = 19149.556<br/>samples = 15<br/>value = 5152.667>, fillcolor="#e5813948"] ;
763 -> 764 ;
765 [label=<mse = 44352.222<br/>samples = 15<br/>value = 4961.667>, fillcolor="#e5813941"] ;
763 -> 765 ;
766 [label=<CAPE-NELSON_MinT_90184 &le; 16.85<br/>mse = 29681.188<br/>samples = 60<br/>value = 4787.25>, fillcolor="#e581393b"] ;
758 -> 766 ;
767 [label=<mse = 31369.728<br/>samples = 21<br/>value = 4670.714>, fillcolor="#e5813936"] ;
766 -> 767 ;
768 [label=<MELBOURNE-AIRPORT_MaxT_86282 &le; 32.65<br/>mse = 17521.795<br/>samples = 39<br/>value = 4850.0>, fillcolor="#e581393d"] ;
766 -> 768 ;
769 [label=<mse = 14801.543<br/>samples = 18<br/>value = 4926.111>, fillcolor="#e5813940"] ;
768 -> 769 ;
770 [label=<mse = 10632.086<br/>samples = 21<br/>value = 4784.762>, fillcolor="#e581393b"] ;
768 -> 770 ;
771 [label=<MELBOURNE-AIRPORT_MaxT_86282 &le; 36.4<br/>mse = 56426.75<br/>samples = 66<br/>value = 5146.288>, fillcolor="#e5813948"] ;
757 -> 771 ;
772 [label=<MELBOURNE-AIRPORT_MaxT_86282 &le; 30.4<br/>mse = 40918.381<br/>samples = 54<br/>value = 5215.37>, fillcolor="#e581394a"] ;
771 -> 772 ;
773 [label=<mse = 41153.395<br/>samples = 18<br/>value = 5347.222>, fillcolor="#e581394f"] ;
772 -> 773 ;
774 [label=<CAPE-NELSON_MinT_90184 &le; 17.95<br/>mse = 27762.191<br/>samples = 36<br/>value = 5149.444>, fillcolor="#e5813948"] ;
772 -> 774 ;
775 [label=<mse = 34646.222<br/>samples = 15<br/>value = 5062.667>, fillcolor="#e5813945"] ;
774 -> 775 ;
776 [label=<mse = 13624.15<br/>samples = 21<br/>value = 5211.429>, fillcolor="#e581394a"] ;
774 -> 776 ;
777 [label=<mse = 8097.743<br/>samples = 12<br/>value = 4835.417>, fillcolor="#e581393c"] ;
771 -> 777 ;
778 [label=<Hour_of_day &le; 5.75<br/>mse = 223482.871<br/>samples = 16380<br/>value = 4769.947>, fillcolor="#e581393a"] ;
2 -> 778 ;
779 [label=<MILDURA-AIRPORT_MaxT_76031 &le; 18.65<br/>mse = 124994.561<br/>samples = 12740<br/>value = 4652.467>, fillcolor="#e5813936"] ;
778 -> 779 ;
780 [label=<Year &le; 2011.5<br/>mse = 97619.976<br/>samples = 3479<br/>value = 4858.481>, fillcolor="#e581393d"] ;
779 -> 780 ;
781 [label=<MELBOURNE-AIRPORT_MinT_86282 &le; 5.95<br/>mse = 90318.342<br/>samples = 2212<br/>value = 4958.958>, fillcolor="#e5813941"] ;
780 -> 781 ;
782 [label=<Hour_of_day &le; 3.25<br/>mse = 70499.483<br/>samples = 1057<br/>value = 5089.518>, fillcolor="#e5813946"] ;
781 -> 782 ;
783 [label=<shoulder &le; 0.5<br/>mse = 56038.683<br/>samples = 302<br/>value = 5282.368>, fillcolor="#e581394d"] ;
782 -> 783 ;
784 [label=<Year &le; 2010.5<br/>mse = 45233.375<br/>samples = 230<br/>value = 5339.196>, fillcolor="#e581394f"] ;
783 -> 784 ;
785 [label=<Hour_of_day &le; 2.75<br/>mse = 35450.37<br/>samples = 166<br/>value = 5394.518>, fillcolor="#e5813951"] ;
784 -> 785 ;
786 [label=<MELBOURNE-AIRPORT_MinT_86282 &le; 4.45<br/>mse = 28925.069<br/>samples = 83<br/>value = 5475.482>, fillcolor="#e5813954"] ;
785 -> 786 ;
787 [label=<MELBOURNE-AIRPORT_MinT_86282 &le; 2.25<br/>mse = 20182.812<br/>samples = 48<br/>value = 5541.25>, fillcolor="#e5813956"] ;
786 -> 787 ;
788 [label=<mse = 7063.889<br/>samples = 12<br/>value = 5638.333>, fillcolor="#e581395a"] ;
787 -> 788 ;
789 [label=<MORWELL_MinT_85280 &le; 3.4<br/>mse = 20366.821<br/>samples = 36<br/>value = 5508.889>, fillcolor="#e5813955"] ;
787 -> 789 ;
790 [label=<CAPE-NELSON_MaxT_90184 &le; 14.45<br/>mse = 20145.79<br/>samples = 24<br/>value = 5466.042>, fillcolor="#e5813953"] ;
789 -> 790 ;
791 [label=<mse = 15912.883<br/>samples = 14<br/>value = 5508.214>, fillcolor="#e5813955"] ;
790 -> 791 ;
792 [label=<mse = 20096.0<br/>samples = 10<br/>value = 5407.0>, fillcolor="#e5813951"] ;
790 -> 792 ;
793 [label=<mse = 9793.576<br/>samples = 12<br/>value = 5594.583>, fillcolor="#e5813958"] ;
789 -> 793 ;
794 [label=<MELBOURNE-AIRPORT_MaxT_86282 &le; 13.65<br/>mse = 26847.061<br/>samples = 35<br/>value = 5385.286>, fillcolor="#e5813951"] ;
786 -> 794 ;
795 [label=<mse = 19170.688<br/>samples = 20<br/>value = 5454.25>, fillcolor="#e5813953"] ;
794 -> 795 ;
796 [label=<mse = 22285.556<br/>samples = 15<br/>value = 5293.333>, fillcolor="#e581394d"] ;
794 -> 796 ;
797 [label=<MELBOURNE-AIRPORT_MinT_86282 &le; 4.35<br/>mse = 28865.38<br/>samples = 83<br/>value = 5313.554>, fillcolor="#e581394e"] ;
785 -> 797 ;
798 [label=<MELBOURNE-AIRPORT_MinT_86282 &le; 2.85<br/>mse = 20041.802<br/>samples = 45<br/>value = 5381.444>, fillcolor="#e5813950"] ;
797 -> 798 ;
799 [label=<mse = 9866.62<br/>samples = 19<br/>value = 5442.895>, fillcolor="#e5813953"] ;
798 -> 799 ;
800 [label=<CAPE-NELSON_MinT_90184 &le; 7.85<br/>mse = 22701.479<br/>samples = 26<br/>value = 5336.538>, fillcolor="#e581394f"] ;
798 -> 800 ;
801 [label=<mse = 18795.408<br/>samples = 14<br/>value = 5267.143>, fillcolor="#e581394c"] ;
800 -> 801 ;
802 [label=<mse = 15085.417<br/>samples = 12<br/>value = 5417.5>, fillcolor="#e5813952"] ;
800 -> 802 ;
803 [label=<MELBOURNE-AIRPORT_MaxT_86282 &le; 13.65<br/>mse = 27392.659<br/>samples = 38<br/>value = 5233.158>, fillcolor="#e581394b"] ;
797 -> 803 ;
804 [label=<mse = 20118.595<br/>samples = 22<br/>value = 5306.364>, fillcolor="#e581394e"] ;
803 -> 804 ;
805 [label=<mse = 19893.75<br/>samples = 16<br/>value = 5132.5>, fillcolor="#e5813947"] ;
803 -> 805 ;
806 [label=<MELBOURNE-AIRPORT_MinT_86282 &le; 3.05<br/>mse = 42079.584<br/>samples = 64<br/>value = 5195.703>, fillcolor="#e581394a"] ;
784 -> 806 ;
807 [label=<mse = 22964.286<br/>samples = 14<br/>value = 5380.0>, fillcolor="#e5813950"] ;
806 -> 807 ;
808 [label=<workdayNSW &le; 0.5<br/>mse = 35258.69<br/>samples = 50<br/>value = 5144.1>, fillcolor="#e5813948"] ;
806 -> 808 ;
809 [label=<mse = 19213.889<br/>samples = 12<br/>value = 4991.667>, fillcolor="#e5813942"] ;
808 -> 809 ;
810 [label=<Hour_of_day &le; 2.75<br/>mse = 30670.654<br/>samples = 38<br/>value = 5192.237>, fillcolor="#e5813949"] ;
808 -> 810 ;
811 [label=<mse = 25875.9<br/>samples = 19<br/>value = 5268.684>, fillcolor="#e581394c"] ;
810 -> 811 ;
812 [label=<mse = 23777.008<br/>samples = 19<br/>value = 5115.789>, fillcolor="#e5813947"] ;
810 -> 812 ;
